tree
version=v4
num_class=1
num_tree_per_iteration=1
label_index=0
max_feature_idx=4
objective=lambdarank
feature_names=similarity bayesain_rating popularity rating same_category
feature_infos=[0:3840] [4.268773521680342:4.3100552841366087] [1.6094379124341003:3.1354942159291497] [3:4.29] [0:1]
tree_sizes=226

Tree=0
num_leaves=1
num_cat=0
split_feature=
split_gain=
threshold=
decision_type=
left_child=
right_child=
leaf_value=0
leaf_weight=
leaf_count=92160
internal_value=
internal_weight=
internal_count=
is_linear=0
shrinkage=1


end of trees

feature_importances:

parameters:
[boosting: gbdt]
[objective: lambdarank]
[metric: ndcg]
[tree_learner: serial]
[device_type: cpu]
[data_sample_strategy: bagging]
[data: ]
[valid: ]
[num_iterations: 1000]
[learning_rate: 0.05]
[num_leaves: 31]
[num_threads: 4]
[seed: 42]
[deterministic: 0]
[force_col_wise: 0]
[force_row_wise: 0]
[histogram_pool_size: -1]
[max_depth: -1]
[min_data_in_leaf: 20]
[min_sum_hessian_in_leaf: 0.001]
[bagging_fraction: 0.8]
[pos_bagging_fraction: 1]
[neg_bagging_fraction: 1]
[bagging_freq: 0]
[bagging_seed: 400]
[bagging_by_query: 0]
[feature_fraction: 0.8]
[feature_fraction_bynode: 1]
[feature_fraction_seed: 30056]
[extra_trees: 0]
[extra_seed: 12879]
[early_stopping_round: 0]
[early_stopping_min_delta: 0]
[first_metric_only: 0]
[max_delta_step: 0]
[lambda_l1: 0]
[lambda_l2: 0]
[linear_lambda: 0]
[min_gain_to_split: 0]
[drop_rate: 0.1]
[max_drop: 50]
[skip_drop: 0.5]
[xgboost_dart_mode: 0]
[uniform_drop: 0]
[drop_seed: 17869]
[top_rate: 0.2]
[other_rate: 0.1]
[min_data_per_group: 100]
[max_cat_threshold: 32]
[cat_l2: 10]
[cat_smooth: 10]
[max_cat_to_onehot: 4]
[top_k: 20]
[monotone_constraints: ]
[monotone_constraints_method: basic]
[monotone_penalty: 0]
[feature_contri: ]
[forcedsplits_filename: ]
[refit_decay_rate: 0.9]
[cegb_tradeoff: 1]
[cegb_penalty_split: 0]
[cegb_penalty_feature_lazy: ]
[cegb_penalty_feature_coupled: ]
[path_smooth: 0]
[interaction_constraints: ]
[verbosity: 1]
[saved_feature_importance_type: 0]
[use_quantized_grad: 0]
[num_grad_quant_bins: 4]
[quant_train_renew_leaf: 0]
[stochastic_rounding: 1]
[linear_tree: 0]
[max_bin: 255]
[max_bin_by_feature: ]
[min_data_in_bin: 3]
[bin_construct_sample_cnt: 200000]
[data_random_seed: 175]
[is_enable_sparse: 1]
[enable_bundle: 1]
[use_missing: 1]
[zero_as_missing: 0]
[feature_pre_filter: 1]
[pre_partition: 0]
[two_round: 0]
[header: 0]
[label_column: ]
[weight_column: ]
[group_column: ]
[ignore_column: ]
[categorical_feature: ]
[forcedbins_filename: ]
[precise_float_parser: 0]
[parser_config_file: ]
[objective_seed: 16083]
[num_class: 1]
[is_unbalance: 0]
[scale_pos_weight: 1]
[sigmoid: 1]
[boost_from_average: 1]
[reg_sqrt: 0]
[alpha: 0.9]
[fair_c: 1]
[poisson_max_delta_step: 0.7]
[tweedie_variance_power: 1.5]
[lambdarank_truncation_level: 30]
[lambdarank_norm: 1]
[label_gain: 0,0.00010001000100010001,0.00020002000200020003,0.00030003000300030005,0.00040004000400040005,0.00050005000500050005,0.00060006000600060011,0.00070007000700070005,0.00080008000800080011,0.00090009000900090016,0.0010001000100010001,0.0011001100110011001,0.0012001200120012002,0.0013001300130013002,0.0014001400140014001,0.0015001500150015003,0.0016001600160016002,0.0017001700170017002,0.0018001800180018003,0.0019001900190019003,0.0020002000200020002,0.0021002100210021002,0.0022002200220022001,0.0023002300230023005,0.0024002400240024004,0.0025002500250025004,0.0026002600260026003,0.0027002700270027003,0.0028002800280028002,0.0029002900290029006,0.0030003000300030005,0.0031003100310031005,0.0032003200320032004,0.0033003300330033004,0.0034003400340034003,0.0035003500350035003,0.0036003600360036006,0.0037003700370037006,0.0038003800380038005,0.0039003900390039005,0.0040004000400040004,0.0041004100410041008,0.0042004200420042003,0.0043004300430043007,0.0044004400440044002,0.0045004500450045006,0.004600460046004601,0.0047004700470047005,0.0048004800480048009,0.0049004900490049004,0.0050005000500050007,0.0051005100510051003,0.0052005200520052006,0.005300530053005301,0.0054005400540054005,0.0055005500550055009,0.0056005600560056004,0.0057005700570057008,0.0058005800580058012,0.0059005900590059007,0.0060006000600060011,0.0061006100610061006,0.006200620062006201,0.0063006300630063005,0.0064006400640064008,0.0065006500650065012,0.0066006600660066007,0.0067006700670067011,0.0068006800680068006,0.006900690069006901,0.0070007000700070005,0.0071007100710071009,0.0072007200720072013,0.0073007300730073008,0.0074007400740074012,0.0075007500750075007,0.0076007600760076011,0.0077007700770077014,0.007800780078007801,0.0079007900790079005,0.0080008000800080008,0.0081008100810081012,0.0082008200820082016,0.0083008300830083002,0.0084008400840084006,0.008500850085008501,0.0086008600860086014,0.0087008700870087018,0.0088008800880088004,0.0089008900890089008,0.0090009000900090012,0.0091009100910091015,0.0092009200920092019,0.0093009300930093006,0.0094009400940094009,0.0095009500950095013,0.0096009600960096017,0.0097009700970097021,0.0098009800980098007,0.0099009900990099011,0.010001000100010001,0.010101010101010102,0.010201020102010201,0.010301030103010301,0.010401040104010401,0.010501050105010502,0.010601060106010602,0.010701070107010701,0.010801080108010801,0.010901090109010901,0.011001100110011002,0.011101110111011102,0.011201120112011201,0.011301130113011301,0.011401140114011402,0.011501150115011502,0.011601160116011602,0.011701170117011701,0.011801180118011801,0.011901190119011902,0.012001200120012002,0.012101210121012101,0.012201220122012201,0.012301230123012302,0.012401240124012402,0.012501250125012502,0.012601260126012601,0.012701270127012701,0.012801280128012802,0.012901290129012902,0.013001300130013002,0.013101310131013101,0.013201320132013201,0.013301330133013302,0.013401340134013402,0.013501350135013503,0.013601360136013601,0.013701370137013702,0.013801380138013802,0.013901390139013902,0.014001400140014001,0.014101410141014101,0.014201420142014202,0.014301430143014302,0.014401440144014403,0.014501450145014501,0.014601460146014602,0.014701470147014702,0.014801480148014802,0.014901490149014903,0.015001500150015001,0.015101510151015102,0.015201520152015202,0.015301530153015303,0.015401540154015403,0.015501550155015502,0.015601560156015602,0.015701570157015701,0.015801580158015801,0.015901590159015901,0.016001600160016002,0.016101610161016102,0.016201620162016202,0.016301630163016303,0.016401640164016403,0.016501650165016504,0.0166016601660166,0.016701670167016701,0.016801680168016801,0.016901690169016902,0.017001700170017002,0.017101710171017102,0.017201720172017203,0.017301730173017303,0.017401740174017404,0.017501750175017504,0.017601760176017601,0.017701770177017701,0.017801780178017802,0.017901790179017902,0.018001800180018002,0.018101810181018103,0.018201820182018203,0.018301830183018303,0.018401840184018404,0.018501850185018501,0.018601860186018601,0.018701870187018702,0.018801880188018802,0.018901890189018902,0.019001900190019003,0.019101910191019103,0.019201920192019203,0.019301930193019304,0.019401940194019404,0.019501950195019501,0.019601960196019601,0.019701970197019702,0.019801980198019802,0.019901990199019903,0.020002000200020003,0.020102010201020103,0.020202020202020204,0.020302030203020304,0.020402040204020401,0.020502050205020501,0.020602060206020602,0.020702070207020702,0.020802080208020803,0.020902090209020903,0.021002100210021003,0.021102110211021104,0.021202120212021204,0.021302130213021304,0.021402140214021401,0.021502150215021502,0.021602160216021602,0.021702170217021702,0.021802180218021803,0.021902190219021903,0.022002200220022004,0.022102210221022104,0.022202220222022204,0.022302230223022301,0.022402240224022402,0.022502250225022502,0.022602260226022602,0.022702270227022703,0.022802280228022803,0.022902290229022904,0.023002300230023004,0.023102310231023104,0.023202320232023205,0.023302330233023302,0.023402340234023402,0.023502350235023502,0.023602360236023603,0.023702370237023703,0.023802380238023804,0.023902390239023904,0.024002400240024004,0.024102410241024105,0.024202420242024202,0.024302430243024302,0.024402440244024402,0.024502450245024503,0.024602460246024603,0.024702470247024703,0.024802480248024804,0.024902490249024904,0.025002500250025005,0.025102510251025105,0.025202520252025202,0.025302530253025302,0.025402540254025403,0.025502550255025503,0.025602560256025603,0.025702570257025704,0.025802580258025804,0.025902590259025905,0.026002600260026005,0.026102610261026102,0.026202620262026202,0.026302630263026303,0.026402640264026403,0.026502650265026503,0.026602660266026604,0.026702670267026704,0.026802680268026804,0.026902690269026905,0.027002700270027005,0.027102710271027102,0.027202720272027203,0.027302730273027303,0.027402740274027403,0.027502750275027504,0.027602760276027604,0.027702770277027704,0.027802780278027805,0.027902790279027905,0.028002800280028002,0.028102810281028102,0.028202820282028203,0.028302830283028303,0.028402840284028404,0.028502850285028504,0.028602860286028604,0.028702870287028705,0.028802880288028805,0.028902890289028906,0.029002900290029002,0.029102910291029103,0.029202920292029203,0.029302930293029304,0.029402940294029404,0.029502950295029504,0.029602960296029605,0.029702970297029705,0.029802980298029805,0.029902990299029902,0.030003000300030003,0.030103010301030103,0.030203020302030203,0.030303030303030304,0.030403040304030404,0.030503050305030505,0.030603060306030605,0.030703070307030705,0.030803080308030806,0.030903090309030903,0.031003100310031003,0.031103110311031103,0.031203120312031204,0.031303130313031301,0.031403140314031401,0.031503150315031501,0.031603160316031602,0.031703170317031702,0.031803180318031803,0.031903190319031903,0.032003200320032003,0.032103210321032104,0.032203220322032204,0.032303230323032305,0.032403240324032405,0.032503250325032505,0.032603260326032606,0.032703270327032706,0.032803280328032806,0.032903290329032907,0.033003300330033007,0.033103310331033108,0.033203320332033201,0.033303330333033301,0.033403340334033402,0.033503350335033502,0.033603360336033603,0.033703370337033703,0.033803380338033803,0.033903390339033904,0.034003400340034004,0.034103410341034104,0.034203420342034205,0.034303430343034305,0.034403440344034406,0.034503450345034506,0.034603460346034606,0.034703470347034707,0.034803480348034807,0.034903490349034907,0.035003500350035008,0.035103510351035101,0.035203520352035202,0.035303530353035302,0.035403540354035402,0.035503550355035503,0.035603560356035603,0.035703570357035704,0.035803580358035804,0.035903590359035904,0.036003600360036005,0.036103610361036105,0.036203620362036205,0.036303630363036306,0.036403640364036406,0.036503650365036507,0.036603660366036607,0.036703670367036707,0.036803680368036808,0.036903690369036908,0.037003700370037002,0.037103710371037102,0.037203720372037202,0.037303730373037303,0.037403740374037403,0.037503750375037503,0.037603760376037604,0.037703770377037704,0.037803780378037805,0.037903790379037905,0.038003800380038005,0.038103810381038106,0.038203820382038206,0.038303830383038306,0.038403840384038407,0.038503850385038507,0.038603860386038608,0.038703870387038708,0.038803880388038808,0.038903890389038902,0.039003900390039002,0.039103910391039103,0.039203920392039203,0.039303930393039303,0.039403940394039404,0.039503950395039504,0.039603960396039604,0.039703970397039705,0.039803980398039805,0.039903990399039906,0.040004000400040006,0.040104010401040106,0.040204020402040207,0.040304030403040307,0.040404040404040407,0.040504050405040508,0.040604060406040608,0.040704070407040709,0.040804080408040802,0.040904090409040902,0.041004100410041003,0.041104110411041103,0.041204120412041204,0.041304130413041304,0.041404140414041404,0.041504150415041505,0.041604160416041605,0.041704170417041705,0.041804180418041806,0.041904190419041906,0.042004200420042007,0.042104210421042107,0.042204220422042207,0.042304230423042308,0.042404240424042408,0.042504250425042508,0.042604260426042609,0.042704270427042702,0.042804280428042803,0.042904290429042903,0.043004300430043003,0.043104310431043104,0.043204320432043204,0.043304330433043305,0.043404340434043405,0.043504350435043505,0.043604360436043606,0.043704370437043706,0.043804380438043806,0.043904390439043907,0.044004400440044007,0.044104410441044108,0.044204420442044208,0.044304430443044308,0.044404440444044409,0.044504450445044509,0.044604460446044603,0.044704470447044703,0.044804480448044803,0.044904490449044904,0.045004500450045004,0.045104510451045104,0.045204520452045205,0.045304530453045305,0.045404540454045406,0.045504550455045506,0.045604560456045606,0.045704570457045707,0.045804580458045807,0.045904590459045908,0.046004600460046008,0.046104610461046108,0.046204620462046209,0.046304630463046309,0.046404640464046409,0.046504650465046503,0.046604660466046603,0.046704670467046704,0.046804680468046804,0.046904690469046904,0.047004700470047005,0.047104710471047105,0.047204720472047206,0.047304730473047306,0.047404740474047406,0.047504750475047507,0.047604760476047607,0.047704770477047707,0.047804780478047808,0.047904790479047908,0.048004800480048009,0.048104810481048109,0.048204820482048209,0.04830483048304831,0.048404840484048403,0.048504850485048503,0.048604860486048604,0.048704870487048704,0.048804880488048805,0.048904890489048905,0.049004900490049005,0.049104910491049106,0.049204920492049206,0.049304930493049307,0.049404940494049407,0.049504950495049507,0.049604960496049608,0.049704970497049708,0.049804980498049808,0.049904990499049909,0.050005000500050009,0.05010501050105011,0.05020502050205021,0.050305030503050303,0.050405040504050404,0.050505050505050504,0.050605060506050605,0.050705070507050705,0.050805080508050805,0.050905090509050906,0.051005100510051006,0.051105110511051106,0.051205120512051207,0.051305130513051307,0.051405140514051408,0.051505150515051508,0.051605160516051608,0.051705170517051709,0.051805180518051809,0.051905190519051909,0.05200520052005201,0.05210521052105211,0.052205220522052204,0.052305230523052304,0.052405240524052404,0.052505250525052505,0.052605260526052605,0.052705270527052706,0.052805280528052806,0.052905290529052906,0.053005300530053007,0.053105310531053107,0.053205320532053207,0.053305330533053308,0.053405340534053408,0.053505350535053509,0.053605360536053609,0.053705370537053709,0.05380538053805381,0.05390539053905391,0.05400540054005401,0.054105410541054104,0.054205420542054204,0.054305430543054305,0.054405440544054405,0.054505450545054505,0.054605460546054606,0.054705470547054706,0.054805480548054807,0.054905490549054907,0.055005500550055007,0.055105510551055108,0.055205520552055208,0.055305530553055308,0.055405540554055409,0.055505550555055509,0.05560556055605561,0.05570557055705571,0.05580558055805581,0.055905590559055911,0.056005600560056004,0.056105610561056105,0.056205620562056205,0.056305630563056305,0.056405640564056406,0.056505650565056506,0.056605660566056606,0.056705670567056707,0.056805680568056807,0.056905690569056908,0.057005700570057008,0.057105710571057108,0.057205720572057209,0.057305730573057309,0.057405740574057409,0.05750575057505751,0.05760576057605761,0.057705770577057711,0.057805780578057811,0.057905790579057904,0.058005800580058005,0.058105810581058105,0.058205820582058206,0.058305830583058306,0.058405840584058406,0.058505850585058507,0.058605860586058607,0.058705870587058707,0.058805880588058808,0.058905890589058908,0.059005900590059009,0.059105910591059109,0.059205920592059209,0.05930593059305931,0.05940594059405941,0.059505950595059511,0.059605960596059611,0.059705970597059711,0.059805980598059805,0.059905990599059905,0.060006000600060005,0.060106010601060106,0.060206020602060206,0.060306030603060307,0.060406040604060407,0.060506050605060507,0.060606060606060608,0.060706070607060708,0.060806080608060809,0.060906090609060909,0.061006100610061009,0.06110611061106111,0.06120612061206121,0.06130613061306131,0.061406140614061411,0.061506150615061511,0.061606160616061612,0.061706170617061705,0.061806180618061805,0.061906190619061906,0.062006200620062006,0.062106210621062106,0.062206220622062207,0.062306230623062307,0.062406240624062408,0.062506250625062515,0.062606260626062601,0.062706270627062702,0.062806280628062802,0.062906290629062903,0.063006300630063003,0.063106310631063103,0.063206320632063204,0.063306330633063304,0.063406340634063404,0.063506350635063505,0.063606360636063605,0.063706370637063706,0.063806380638063806,0.063906390639063906,0.064006400640064007,0.064106410641064107,0.064206420642064208,0.064306430643064308,0.064406440644064408,0.064506450645064509,0.064606460646064609,0.064706470647064709,0.06480648064806481,0.06490649064906491,0.065006500650065011,0.065106510651065111,0.065206520652065211,0.065306530653065312,0.065406540654065412,0.065506550655065512,0.065606560656065613,0.065706570657065713,0.065806580658065814,0.065906590659065914,0.066006600660066014,0.066106610661066115,0.066206620662066215,0.066306630663066315,0.066406640664066402,0.066506650665066502,0.066606660666066603,0.066706670667066703,0.066806680668066803,0.066906690669066904,0.067006700670067004,0.067106710671067105,0.067206720672067205,0.067306730673067305,0.067406740674067406,0.067506750675067506,0.067606760676067607,0.067706770677067707,0.067806780678067807,0.067906790679067908,0.068006800680068008,0.068106810681068108,0.068206820682068209,0.068306830683068309,0.06840684068406841,0.06850685068506851,0.06860686068606861,0.068706870687068711,0.068806880688068811,0.068906890689068911,0.069006900690069012,0.069106910691069112,0.069206920692069213,0.069306930693069313,0.069406940694069413,0.069506950695069514,0.069606960696069614,0.069706970697069714,0.069806980698069815,0.069906990699069915,0.070007000700070016,0.070107010701070116,0.070207020702070203,0.070307030703070303,0.070407040704070403,0.070507050705070504,0.070607060706070604,0.070707070707070704,0.070807080708070805,0.070907090709070905,0.071007100710071006,0.071107110711071106,0.071207120712071206,0.071307130713071307,0.071407140714071407,0.071507150715071507,0.071607160716071608,0.071707170717071708,0.071807180718071809,0.071907190719071909,0.072007200720072009,0.07210721072107211,0.07220722072207221,0.07230723072307231,0.072407240724072411,0.072507250725072511,0.072607260726072612,0.072707270727072712,0.072807280728072812,0.072907290729072913,0.073007300730073013,0.073107310731073114,0.073207320732073214,0.073307330733073314,0.073407340734073415,0.073507350735073515,0.073607360736073615,0.073707370737073716,0.073807380738073816,0.073907390739073917,0.074007400740074003,0.074107410741074103,0.074207420742074204,0.074307430743074304,0.074407440744074405,0.074507450745074505,0.074607460746074605,0.074707470747074706,0.074807480748074806,0.074907490749074906,0.075007500750075007,0.075107510751075107,0.075207520752075208,0.075307530753075308,0.075407540754075408,0.075507550755075509,0.075607560756075609,0.075707570757075709,0.07580758075807581,0.07590759075907591,0.076007600760076011,0.076107610761076111,0.076207620762076211,0.076307630763076312,0.076407640764076412,0.076507650765076513,0.076607660766076613,0.076707670767076713,0.076807680768076814,0.076907690769076914,0.077007700770077014,0.077107710771077115,0.077207720772077215,0.077307730773077316,0.077407740774077416,0.077507750775077516,0.077607760776077617,0.077707770777077717,0.077807780778077804,0.077907790779077904,0.078007800780078004,0.078107810781078105,0.078207820782078205,0.078307830783078305,0.078407840784078406,0.078507850785078506,0.078607860786078607,0.078707870787078707,0.078807880788078807,0.078907890789078908,0.079007900790079008,0.079107910791079109,0.079207920792079209,0.079307930793079309,0.07940794079407941,0.07950795079507951,0.07960796079607961,0.079707970797079711,0.079807980798079811,0.079907990799079912,0.080008000800080012,0.080108010801080112,0.080208020802080213,0.080308030803080313,0.080408040804080413,0.080508050805080514,0.080608060806080614,0.080708070807080715,0.080808080808080815,0.080908090809080915,0.081008100810081016,0.081108110811081116,0.081208120812081216,0.081308130813081317,0.081408140814081417,0.081508150815081518,0.081608160816081604,0.081708170817081704,0.081808180818081805,0.081908190819081905,0.082008200820082006,0.082108210821082106,0.082208220822082206,0.082308230823082307,0.082408240824082407,0.082508250825082508,0.082608260826082608,0.082708270827082708,0.082808280828082809,0.082908290829082909,0.083008300830083009,0.08310831083108311,0.08320832083208321,0.083308330833083311,0.083408340834083411,0.083508350835083511,0.083608360836083612,0.083708370837083712,0.083808380838083812,0.083908390839083913,0.084008400840084013,0.084108410841084114,0.084208420842084214,0.084308430843084314,0.084408440844084415,0.084508450845084515,0.084608460846084615,0.084708470847084716,0.084808480848084816,0.084908490849084917,0.085008500850085017,0.085108510851085117,0.085208520852085218,0.085308530853085318,0.085408540854085405,0.085508550855085505,0.085608560856085605,0.085708570857085706,0.085808580858085806,0.085908590859085907,0.086008600860086007,0.086108610861086107,0.086208620862086208,0.086308630863086308,0.086408640864086408,0.086508650865086509,0.086608660866086609,0.08670867086708671,0.08680868086808681,0.08690869086908691,0.087008700870087011,0.087108710871087111,0.087208720872087211,0.087308730873087312,0.087408740874087412,0.087508750875087513,0.087608760876087613,0.087708770877087713,0.087808780878087814,0.087908790879087914,0.088008800880088014,0.088108810881088115,0.088208820882088215,0.088308830883088316,0.088408840884088416,0.088508850885088516,0.088608860886088617,0.088708870887088717,0.088808880888088818,0.088908890889088918,0.089008900890089018,0.089108910891089119,0.089208920892089205,0.089308930893089306,0.089408940894089406,0.089508950895089506,0.089608960896089607,0.089708970897089707,0.089808980898089807,0.089908990899089908,0.090009000900090008,0.090109010901090109,0.090209020902090209,0.090309030903090309,0.09040904090409041,0.09050905090509051,0.09060906090609061,0.090709070907090711,0.090809080908090811,0.090909090909090912,0.091009100910091012,0.091109110911091112,0.091209120912091213,0.091309130913091313,0.091409140914091414,0.091509150915091514,0.091609160916091614,0.091709170917091715,0.091809180918091815,0.091909190919091915,0.092009200920092016,0.092109210921092116,0.092209220922092217,0.092309230923092317,0.092409240924092417,0.092509250925092518,0.092609260926092618,0.092709270927092718,0.092809280928092819,0.092909290929092919,0.093009300930093006,0.093109310931093106,0.093209320932093206,0.093309330933093307,0.093409340934093407,0.093509350935093508,0.093609360936093608,0.093709370937093708,0.093809380938093809,0.093909390939093909,0.094009400940094009,0.09410941094109411,0.09420942094209421,0.094309430943094311,0.094409440944094411,0.094509450945094511,0.094609460946094612,0.094709470947094712,0.094809480948094813,0.094909490949094913,0.095009500950095013,0.095109510951095114,0.095209520952095214,0.095309530953095314,0.095409540954095415,0.095509550955095515,0.095609560956095616,0.095709570957095716,0.095809580958095816,0.095909590959095917,0.096009600960096017,0.096109610961096117,0.096209620962096218,0.096309630963096318,0.096409640964096419,0.096509650965096519,0.096609660966096619,0.09670967096709672,0.096809680968096806,0.096909690969096907,0.097009700970097007,0.097109710971097107,0.097209720972097208,0.097309730973097308,0.097409740974097409,0.097509750975097509,0.097609760976097609,0.09770977097709771,0.09780978097809781,0.09790979097909791,0.098009800980098011,0.098109810981098111,0.098209820982098212,0.098309830983098312,0.098409840984098412,0.098509850985098513,0.098609860986098613,0.098709870987098713,0.098809880988098814,0.098909890989098914,0.099009900990099015,0.099109910991099115,0.099209920992099215,0.099309930993099316,0.099409940994099416,0.099509950995099516,0.099609960996099617,0.099709970997099717,0.099809980998099818,0.099909990999099918,0.10001000100010002,0.10011001100110012,0.10021002100210022,0.10031003100310032,0.10041004100410042,0.10051005100510052,0.10061006100610061,0.10071007100710071,0.10081008100810081,0.10091009100910091,0.10101010101010101,0.10111011101110111,0.10121012101210121,0.10131013101310131,0.10141014101410141,0.10151015101510151,0.10161016101610161,0.10171017101710171,0.10181018101810181,0.10191019101910191,0.10201020102010201,0.10211021102110211,0.10221022102210221,0.10231023102310231,0.10241024102410241,0.10251025102510251,0.10261026102610261,0.10271027102710271,0.10281028102810282,0.10291029102910292,0.10301030103010302,0.10311031103110312,0.10321032103210322,0.10331033103310332,0.10341034103410342,0.10351035103510352,0.10361036103610362,0.10371037103710372,0.10381038103810382,0.10391039103910392,0.10401040104010402,0.10411041104110412,0.10421042104210422,0.10431043104310431,0.10441044104410441,0.10451045104510451,0.10461046104610461,0.10471047104710471,0.10481048104810481,0.10491049104910491,0.10501050105010501,0.10511051105110511,0.10521052105210521,0.10531053105310531,0.10541054105410541,0.10551055105510551,0.10561056105610561,0.10571057105710571,0.10581058105810581,0.10591059105910591,0.10601060106010601,0.10611061106110611,0.10621062106210621,0.10631063106310631,0.10641064106410641,0.10651065106510652,0.10661066106610662,0.10671067106710672,0.10681068106810682,0.10691069106910692,0.10701070107010702,0.10711071107110712,0.10721072107210722,0.10731073107310732,0.10741074107410742,0.10751075107510752,0.10761076107610762,0.10771077107710772,0.10781078107810782,0.10791079107910792,0.10801080108010802,0.10811081108110811,0.10821082108210821,0.10831083108310831,0.10841084108410841,0.10851085108510851,0.10861086108610861,0.10871087108710871,0.10881088108810881,0.10891089108910891,0.10901090109010901,0.10911091109110911,0.10921092109210921,0.10931093109310931,0.10941094109410941,0.10951095109510951,0.10961096109610961,0.10971097109710971,0.10981098109810981,0.10991099109910991,0.11001100110011001,0.11011101110111012,0.11021102110211022,0.11031103110311032,0.11041104110411042,0.11051105110511052,0.11061106110611062,0.11071107110711072,0.11081108110811082,0.11091109110911092,0.11101110111011102,0.11111111111111112,0.11121112111211122,0.11131113111311132,0.11141114111411142,0.11151115111511152,0.11161116111611162,0.11171117111711172,0.11181118111811182,0.11191119111911191,0.11201120112011201,0.11211121112111211,0.11221122112211221,0.11231123112311231,0.11241124112411241,0.11251125112511251,0.11261126112611261,0.11271127112711271,0.11281128112811281,0.11291129112911291,0.11301130113011301,0.11311131113111311,0.11321132113211321,0.11331133113311331,0.11341134113411341,0.11351135113511351,0.11361136113611361,0.11371137113711371,0.11381138113811382,0.11391139113911392,0.11401140114011402,0.11411141114111412,0.11421142114211422,0.11431143114311432,0.11441144114411442,0.11451145114511452,0.11461146114611462,0.11471147114711472,0.11481148114811482,0.11491149114911492,0.11501150115011502,0.11511151115111512,0.11521152115211522,0.11531153115311532,0.11541154115411542,0.11551155115511552,0.11561156115611562,0.11571157115711571,0.11581158115811581,0.11591159115911591,0.11601160116011601,0.11611161116111611,0.11621162116211621,0.11631163116311631,0.11641164116411641,0.11651165116511651,0.11661166116611661,0.11671167116711671,0.11681168116811681,0.11691169116911691,0.11701170117011701,0.11711171117111711,0.11721172117211721,0.11731173117311731,0.11741174117411741,0.11751175117511752,0.11761176117611762,0.11771177117711772,0.11781178117811782,0.11791179117911792,0.11801180118011802,0.11811181118111812,0.11821182118211822,0.11831183118311832,0.11841184118411842,0.11851185118511852,0.11861186118611862,0.11871187118711872,0.11881188118811882,0.11891189118911892,0.11901190119011902,0.11911191119111912,0.11921192119211922,0.11931193119311932,0.11941194119411942,0.11951195119511951,0.11961196119611961,0.11971197119711971,0.11981198119811981,0.11991199119911991,0.12001200120012001,0.12011201120112011,0.12021202120212021,0.12031203120312031,0.12041204120412041,0.12051205120512051,0.12061206120612061,0.12071207120712071,0.12081208120812081,0.12091209120912091,0.12101210121012101,0.12111211121112112,0.12121212121212122,0.12131213121312132,0.12141214121412142,0.12151215121512152,0.12161216121612162,0.12171217121712172,0.12181218121812182,0.12191219121912192,0.12201220122012202,0.12211221122112212,0.12221222122212222,0.12231223122312232,0.12241224122412242,0.12251225122512252,0.12261226122612262,0.12271227122712272,0.12281228122812282,0.12291229122912292,0.12301230123012302,0.12311231123112312,0.12321232123212322,0.12331233123312331,0.12341234123412341,0.12351235123512351,0.12361236123612361,0.12371237123712371,0.12381238123812381,0.12391239123912391,0.12401240124012401,0.12411241124112411,0.12421242124212421,0.12431243124312431,0.12441244124412441,0.12451245124512451,0.12461246124612461,0.12471247124712471,0.12481248124812482,0.12491249124912492,0.12501250125012503,0.12511251125112513,0.1252125212521252,0.1253125312531253,0.1254125412541254,0.1255125512551255,0.1256125612561256,0.1257125712571257,0.12581258125812581,0.12591259125912591,0.12601260126012601,0.12611261126112611,0.12621262126212621,0.12631263126312631,0.12641264126412641,0.12651265126512651,0.12661266126612661,0.12671267126712671,0.12681268126812681,0.12691269126912691,0.12701270127012701,0.12711271127112711,0.12721272127212721,0.12731273127312731,0.12741274127412741,0.12751275127512751,0.12761276127612761,0.12771277127712771,0.12781278127812781,0.12791279127912791,0.12801280128012801,0.12811281128112811,0.12821282128212821,0.12831283128312831,0.12841284128412842,0.12851285128512852,0.12861286128612862,0.12871287128712872,0.12881288128812882,0.12891289128912892,0.12901290129012902,0.12911291129112912,0.12921292129212922,0.12931293129312932,0.12941294129412942,0.12951295129512952,0.12961296129612962,0.12971297129712972,0.12981298129812982,0.12991299129912992,0.13001300130013002,0.13011301130113012,0.13021302130213022,0.13031303130313032,0.13041304130413042,0.13051305130513052,0.13061306130613062,0.13071307130713072,0.13081308130813082,0.13091309130913092,0.13101310131013102,0.13111311131113113,0.13121312131213123,0.13131313131313133,0.13141314131413143,0.13151315131513153,0.13161316131613163,0.13171317131713173,0.13181318131813183,0.13191319131913193,0.13201320132013203,0.13211321132113213,0.13221322132213223,0.13231323132313233,0.13241324132413243,0.13251325132513253,0.13261326132613263,0.13271327132713273,0.1328132813281328,0.1329132913291329,0.133013301330133,0.13311331133113311,0.13321332133213321,0.13331333133313331,0.13341334133413341,0.13351335133513351,0.13361336133613361,0.13371337133713371,0.13381338133813381,0.13391339133913391,0.13401340134013401,0.13411341134113411,0.13421342134213421,0.13431343134313431,0.13441344134413441,0.13451345134513451,0.13461346134613461,0.13471347134713471,0.13481348134813481,0.13491349134913491,0.13501350135013501,0.13511351135113511,0.13521352135213521,0.13531353135313531,0.13541354135413541,0.13551355135513551,0.13561356135613561,0.13571357135713571,0.13581358135813582,0.13591359135913592,0.13601360136013602,0.13611361136113612,0.13621362136213622,0.13631363136313632,0.13641364136413642,0.13651365136513652,0.13661366136613662,0.13671367136713672,0.13681368136813682,0.13691369136913692,0.13701370137013702,0.13711371137113712,0.13721372137213722,0.13731373137313732,0.13741374137413742,0.13751375137513752,0.13761376137613762,0.13771377137713772,0.13781378137813782,0.13791379137913792,0.13801380138013802,0.13811381138113812,0.13821382138213822,0.13831383138313832,0.13841384138413843,0.13851385138513853,0.13861386138613863,0.13871387138713873,0.13881388138813883,0.13891389138913893,0.13901390139013903,0.13911391139113913,0.13921392139213923,0.13931393139313933,0.13941394139413943,0.13951395139513953,0.13961396139613963,0.13971397139713973,0.13981398139813983,0.13991399139913993,0.14001400140014003,0.14011401140114013,0.14021402140214023,0.14031403140314033,0.14041404140414041,0.14051405140514051,0.14061406140614061,0.14071407140714071,0.14081408140814081,0.14091409140914091,0.14101410141014101,0.14111411141114111,0.14121412141214121,0.14131413141314131,0.14141414141414141,0.14151415141514151,0.14161416141614161,0.14171417141714171,0.14181418141814181,0.14191419141914191,0.14201420142014201,0.14211421142114211,0.14221422142214221,0.14231423142314231,0.14241424142414241,0.14251425142514251,0.14261426142614261,0.14271427142714271,0.14281428142814281,0.14291429142914291,0.14301430143014301,0.14311431143114312,0.14321432143214322,0.14331433143314332,0.14341434143414342,0.14351435143514352,0.14361436143614362,0.14371437143714372,0.14381438143814382,0.14391439143914392,0.14401440144014402,0.14411441144114412,0.14421442144214422,0.14431443144314432,0.14441444144414442,0.14451445144514452,0.14461446144614462,0.14471447144714472,0.14481448144814482,0.14491449144914492,0.14501450145014502,0.14511451145114512,0.14521452145214522,0.14531453145314532,0.14541454145414542,0.14551455145514552,0.14561456145614562,0.14571457145714573,0.14581458145814583,0.14591459145914593,0.14601460146014603,0.14611461146114613,0.14621462146214623,0.14631463146314633,0.14641464146414643,0.14651465146514653,0.14661466146614663,0.14671467146714673,0.14681468146814683,0.14691469146914693,0.14701470147014703,0.14711471147114713,0.14721472147214723,0.14731473147314733,0.14741474147414743,0.14751475147514753,0.14761476147614763,0.14771477147714773,0.14781478147814783,0.14791479147914793,0.14801480148014801,0.14811481148114811,0.14821482148214821,0.14831483148314831,0.14841484148414841,0.14851485148514851,0.14861486148614861,0.14871487148714871,0.14881488148814881,0.14891489148914891,0.14901490149014901,0.14911491149114911,0.14921492149214921,0.14931493149314931,0.14941494149414941,0.14951495149514951,0.14961496149614961,0.14971497149714971,0.14981498149814981,0.14991499149914991,0.15001500150015001,0.15011501150115011,0.15021502150215021,0.15031503150315031,0.15041504150415042,0.15051505150515052,0.15061506150615062,0.15071507150715072,0.15081508150815082,0.15091509150915092,0.15101510151015102,0.15111511151115112,0.15121512151215122,0.15131513151315132,0.15141514151415142,0.15151515151515152,0.15161516151615162,0.15171517151715172,0.15181518151815182,0.15191519151915192,0.15201520152015202,0.15211521152115212,0.15221522152215222,0.15231523152315232,0.15241524152415242,0.15251525152515252,0.15261526152615262,0.15271527152715272,0.15281528152815282,0.15291529152915292,0.15301530153015303,0.15311531153115313,0.15321532153215323,0.15331533153315333,0.15341534153415343,0.15351535153515353,0.15361536153615363,0.15371537153715373,0.15381538153815383,0.15391539153915393,0.15401540154015403,0.15411541154115413,0.15421542154215423,0.15431543154315433,0.15441544154415443,0.15451545154515453,0.15461546154615463,0.15471547154715473,0.15481548154815483,0.15491549154915493,0.15501550155015503,0.15511551155115513,0.15521552155215523,0.15531553155315533,0.15541554155415543,0.15551555155515551,0.15561556155615561,0.15571557155715571,0.15581558155815581,0.15591559155915591,0.15601560156015601,0.15611561156115611,0.15621562156215621,0.15631563156315631,0.15641564156415641,0.15651565156515651,0.15661566156615661,0.15671567156715671,0.15681568156815681,0.15691569156915691,0.15701570157015701,0.15711571157115711,0.15721572157215721,0.15731573157315731,0.15741574157415741,0.15751575157515751,0.15761576157615761,0.15771577157715772,0.15781578157815782,0.15791579157915792,0.15801580158015802,0.15811581158115812,0.15821582158215822,0.15831583158315832,0.15841584158415842,0.15851585158515852,0.15861586158615862,0.15871587158715872,0.15881588158815882,0.15891589158915892,0.15901590159015902,0.15911591159115912,0.15921592159215922,0.15931593159315932,0.15941594159415942,0.15951595159515952,0.15961596159615962,0.15971597159715972,0.15981598159815982,0.15991599159915992,0.16001600160016002,0.16011601160116012,0.16021602160216022,0.16031603160316032,0.16041604160416043,0.16051605160516053,0.16061606160616063,0.16071607160716073,0.16081608160816083,0.16091609160916093,0.16101610161016103,0.16111611161116113,0.16121612161216123,0.16131613161316133,0.16141614161416143,0.16151615161516153,0.16161616161616163,0.16171617161716173,0.16181618161816183,0.16191619161916193,0.16201620162016203,0.16211621162116213,0.16221622162216223,0.16231623162316233,0.16241624162416243,0.16251625162516253,0.16261626162616263,0.16271627162716273,0.16281628162816283,0.16291629162916293,0.16301630163016304,0.16311631163116311,0.16321632163216321,0.16331633163316331,0.16341634163416341,0.16351635163516351,0.16361636163616361,0.16371637163716371,0.16381638163816381,0.16391639163916391,0.16401640164016401,0.16411641164116411,0.16421642164216421,0.16431643164316431,0.16441644164416441,0.16451645164516451,0.16461646164616461,0.16471647164716471,0.16481648164816481,0.16491649164916491,0.16501650165016502,0.16511651165116512,0.16521652165216522,0.16531653165316532,0.16541654165416542,0.16551655165516552,0.16561656165616562,0.16571657165716572,0.16581658165816582,0.16591659165916592,0.16601660166016602,0.16611661166116612,0.16621662166216622,0.16631663166316632,0.16641664166416642,0.16651665166516652,0.16661666166616662,0.16671667166716672,0.16681668166816682,0.16691669166916692,0.16701670167016702,0.16711671167116712,0.16721672167216722,0.16731673167316732,0.16741674167416742,0.16751675167516752,0.16761676167616762,0.16771677167716773,0.16781678167816783,0.16791679167916793,0.16801680168016803,0.16811681168116813,0.16821682168216823,0.16831683168316833,0.16841684168416843,0.16851685168516853,0.16861686168616863,0.16871687168716873,0.16881688168816883,0.16891689168916893,0.16901690169016903,0.16911691169116913,0.16921692169216923,0.16931693169316933,0.16941694169416943,0.16951695169516953,0.16961696169616963,0.16971697169716973,0.16981698169816983,0.16991699169916993,0.17001700170017003,0.17011701170117013,0.17021702170217023,0.17031703170317034,0.17041704170417044,0.17051705170517054,0.17061706170617064,0.17071707170717071,0.17081708170817081,0.17091709170917091,0.17101710171017101,0.17111711171117111,0.17121712171217121,0.17131713171317131,0.17141714171417141,0.17151715171517151,0.17161716171617161,0.17171717171717171,0.17181718171817181,0.17191719171917191,0.17201720172017201,0.17211721172117211,0.17221722172217221,0.17231723172317231,0.17241724172417242,0.17251725172517252,0.17261726172617262,0.17271727172717272,0.17281728172817282,0.17291729172917292,0.17301730173017302,0.17311731173117312,0.17321732173217322,0.17331733173317332,0.17341734173417342,0.17351735173517352,0.17361736173617362,0.17371737173717372,0.17381738173817382,0.17391739173917392,0.17401740174017402,0.17411741174117412,0.17421742174217422,0.17431743174317432,0.17441744174417442,0.17451745174517452,0.17461746174617462,0.17471747174717472,0.17481748174817482,0.17491749174917492,0.17501750175017503,0.17511751175117513,0.17521752175217523,0.17531753175317533,0.17541754175417543,0.17551755175517553,0.17561756175617563,0.17571757175717573,0.17581758175817583,0.17591759175917593,0.17601760176017603,0.17611761176117613,0.17621762176217623,0.17631763176317633,0.17641764176417643,0.17651765176517653,0.17661766176617663,0.17671767176717673,0.17681768176817683,0.17691769176917693,0.17701770177017703,0.17711771177117713,0.17721772177217723,0.17731773177317733,0.17741774177417743,0.17751775177517753,0.17761776177617764,0.17771777177717774,0.17781778177817784,0.17791779177917794,0.17801780178017804,0.17811781178117814,0.17821782178217824,0.17831783178317831,0.17841784178417841,0.17851785178517851,0.17861786178617861,0.17871787178717871,0.17881788178817881,0.17891789178917891,0.17901790179017901,0.17911791179117911,0.17921792179217921,0.17931793179317931,0.17941794179417941,0.17951795179517951,0.17961796179617961,0.17971797179717972,0.17981798179817982,0.17991799179917992,0.18001800180018002,0.18011801180118012,0.18021802180218022,0.18031803180318032,0.18041804180418042,0.18051805180518052,0.18061806180618062,0.18071807180718072,0.18081808180818082,0.18091809180918092,0.18101810181018102,0.18111811181118112,0.18121812181218122,0.18131813181318132,0.18141814181418142,0.18151815181518152,0.18161816181618162,0.18171817181718172,0.18181818181818182,0.18191819181918192,0.18201820182018202,0.18211821182118212,0.18221822182218222,0.18231823182318233,0.18241824182418243,0.18251825182518253,0.18261826182618263,0.18271827182718273,0.18281828182818283,0.18291829182918293,0.18301830183018303,0.18311831183118313,0.18321832183218323,0.18331833183318333,0.18341834183418343,0.18351835183518353,0.18361836183618363,0.18371837183718373,0.18381838183818383,0.18391839183918393,0.18401840184018403,0.18411841184118413,0.18421842184218423,0.18431843184318433,0.18441844184418443,0.18451845184518453,0.18461846184618463,0.18471847184718473,0.18481848184818483,0.18491849184918493,0.18501850185018504,0.18511851185118514,0.18521852185218524,0.18531853185318534,0.18541854185418544,0.18551855185518554,0.18561856185618564,0.18571857185718574,0.18581858185818584,0.18591859185918591,0.18601860186018601,0.18611861186118611,0.18621862186218621,0.18631863186318631,0.18641864186418641,0.18651865186518651,0.18661866186618661,0.18671867186718671,0.18681868186818681,0.18691869186918691,0.18701870187018702,0.18711871187118712,0.18721872187218722,0.18731873187318732,0.18741874187418742,0.18751875187518752,0.18761876187618762,0.18771877187718772,0.18781878187818782,0.18791879187918792,0.18801880188018802,0.18811881188118812,0.18821882188218822,0.18831883188318832,0.18841884188418842,0.18851885188518852,0.18861886188618862,0.18871887188718872,0.18881888188818882,0.18891889188918892,0.18901890189018902,0.18911891189118912,0.18921892189218922,0.18931893189318932,0.18941894189418942,0.18951895189518952,0.18961896189618963,0.18971897189718973,0.18981898189818983,0.18991899189918993,0.19001900190019003,0.19011901190119013,0.19021902190219023,0.19031903190319033,0.19041904190419043,0.19051905190519053,0.19061906190619063,0.19071907190719073,0.19081908190819083,0.19091909190919093,0.19101910191019103,0.19111911191119113,0.19121912191219123,0.19131913191319133,0.19141914191419143,0.19151915191519153,0.19161916191619163,0.19171917191719173,0.19181918191819183,0.19191919191919193,0.19201920192019203,0.19211921192119213,0.19221922192219223,0.19231923192319234,0.19241924192419244,0.19251925192519254,0.19261926192619264,0.19271927192719274,0.19281928192819284,0.19291929192919294,0.19301930193019304,0.19311931193119314,0.19321932193219324,0.19331933193319334,0.19341934193419344,0.19351935193519351,0.19361936193619361,0.19371937193719371,0.19381938193819381,0.19391939193919391,0.19401940194019401,0.19411941194119411,0.19421942194219421,0.19431943194319432,0.19441944194419442,0.19451945194519452,0.19461946194619462,0.19471947194719472,0.19481948194819482,0.19491949194919492,0.19501950195019502,0.19511951195119512,0.19521952195219522,0.19531953195319532,0.19541954195419542,0.19551955195519552,0.19561956195619562,0.19571957195719572,0.19581958195819582,0.19591959195919592,0.19601960196019602,0.19611961196119612,0.19621962196219622,0.19631963196319632,0.19641964196419642,0.19651965196519652,0.19661966196619662,0.19671967196719672,0.19681968196819682,0.19691969196919692,0.19701970197019703,0.19711971197119713,0.19721972197219723,0.19731973197319733,0.19741974197419743,0.19751975197519753,0.19761976197619763,0.19771977197719773,0.19781978197819783,0.19791979197919793,0.19801980198019803,0.19811981198119813,0.19821982198219823,0.19831983198319833,0.19841984198419843,0.19851985198519853,0.19861986198619863,0.19871987198719873,0.19881988198819883,0.19891989198919893,0.19901990199019903,0.19911991199119913,0.19921992199219923,0.19931993199319933,0.19941994199419943,0.19951995199519953,0.19961996199619964,0.19971997199719974,0.19981998199819984,0.19991999199919994,0.20002000200020004,0.20012001200120014,0.20022002200220024,0.20032003200320034,0.20042004200420044,0.20052005200520054,0.20062006200620064,0.20072007200720074,0.20082008200820084,0.20092009200920094,0.20102010201020104,0.20112011201120111,0.20122012201220121,0.20132013201320131,0.20142014201420141,0.20152015201520151,0.20162016201620162,0.20172017201720172,0.20182018201820182,0.20192019201920192,0.20202020202020202,0.20212021202120212,0.20222022202220222,0.20232023202320232,0.20242024202420242,0.20252025202520252,0.20262026202620262,0.20272027202720272,0.20282028202820282,0.20292029202920292,0.20302030203020302,0.20312031203120312,0.20322032203220322,0.20332033203320332,0.20342034203420342,0.20352035203520352,0.20362036203620362,0.20372037203720372,0.20382038203820382,0.20392039203920392,0.20402040204020402,0.20412041204120412,0.20422042204220422,0.20432043204320433,0.20442044204420443,0.20452045204520453,0.20462046204620463,0.20472047204720473,0.20482048204820483,0.20492049204920493,0.20502050205020503,0.20512051205120513,0.20522052205220523,0.20532053205320533,0.20542054205420543,0.20552055205520553,0.20562056205620563,0.20572057205720573,0.20582058205820583,0.20592059205920593,0.20602060206020603,0.20612061206120613,0.20622062206220623,0.20632063206320633,0.20642064206420643,0.20652065206520653,0.20662066206620663,0.20672067206720673,0.20682068206820683,0.20692069206920694,0.20702070207020704,0.20712071207120714,0.20722072207220724,0.20732073207320734,0.20742074207420744,0.20752075207520754,0.20762076207620764,0.20772077207720774,0.20782078207820784,0.20792079207920794,0.20802080208020804,0.20812081208120814,0.20822082208220824,0.20832083208320834,0.20842084208420844,0.20852085208520854,0.20862086208620861,0.20872087208720871,0.20882088208820881,0.20892089208920891,0.20902090209020902,0.20912091209120912,0.20922092209220922,0.20932093209320932,0.20942094209420942,0.20952095209520952,0.20962096209620962,0.20972097209720972,0.20982098209820982,0.20992099209920992,0.21002100210021002,0.21012101210121012,0.21022102210221022,0.21032103210321032,0.21042104210421042,0.21052105210521052,0.21062106210621062,0.21072107210721072,0.21082108210821082,0.21092109210921092,0.21102110211021102,0.21112111211121112,0.21122112211221122,0.21132113211321132,0.21142114211421142,0.21152115211521152,0.21162116211621163,0.21172117211721173,0.21182118211821183,0.21192119211921193,0.21202120212021203,0.21212121212121213,0.21222122212221223,0.21232123212321233,0.21242124212421243,0.21252125212521253,0.21262126212621263,0.21272127212721273,0.21282128212821283,0.21292129212921293,0.21302130213021303,0.21312131213121313,0.21322132213221323,0.21332133213321333,0.21342134213421343,0.21352135213521353,0.21362136213621363,0.21372137213721373,0.21382138213821383,0.21392139213921393,0.21402140214021403,0.21412141214121413,0.21422142214221424,0.21432143214321434,0.21442144214421444,0.21452145214521454,0.21462146214621464,0.21472147214721474,0.21482148214821484,0.21492149214921494,0.21502150215021504,0.21512151215121514,0.21522152215221524,0.21532153215321534,0.21542154215421544,0.21552155215521554,0.21562156215621564,0.21572157215721574,0.21582158215821584,0.21592159215921594,0.21602160216021604,0.21612161216121614,0.21622162216221621,0.21632163216321632,0.21642164216421642,0.21652165216521652,0.21662166216621662,0.21672167216721672,0.21682168216821682,0.21692169216921692,0.21702170217021702,0.21712171217121712,0.21722172217221722,0.21732173217321732,0.21742174217421742,0.21752175217521752,0.21762176217621762,0.21772177217721772,0.21782178217821782,0.21792179217921792,0.21802180218021802,0.21812181218121812,0.21822182218221822,0.21832183218321832,0.21842184218421842,0.21852185218521852,0.21862186218621862,0.21872187218721872,0.21882188218821882,0.21892189218921893,0.21902190219021903,0.21912191219121913,0.21922192219221923,0.21932193219321933,0.21942194219421943,0.21952195219521953,0.21962196219621963,0.21972197219721973,0.21982198219821983,0.21992199219921993,0.22002200220022003,0.22012201220122013,0.22022202220222023,0.22032203220322033,0.22042204220422043,0.22052205220522053,0.22062206220622063,0.22072207220722073,0.22082208220822083,0.22092209220922093,0.22102210221022103,0.22112211221122113,0.22122212221222123,0.22132213221322133,0.22142214221422143,0.22152215221522153,0.22162216221622164,0.22172217221722174,0.22182218221822184,0.22192219221922194,0.22202220222022204,0.22212221222122214,0.22222222222222224,0.22232223222322234,0.22242224222422244,0.22252225222522254,0.22262226222622264,0.22272227222722274,0.22282228222822284,0.22292229222922294,0.22302230223022304,0.22312231223122314,0.22322232223222324,0.22332233223322334,0.22342234223422344,0.22352235223522354,0.22362236223622364,0.22372237223722374,0.22382238223822382,0.22392239223922392,0.22402240224022402,0.22412241224122412,0.22422242224222422,0.22432243224322432,0.22442244224422442,0.22452245224522452,0.22462246224622462,0.22472247224722472,0.22482248224822482,0.22492249224922492,0.22502250225022502,0.22512251225122512,0.22522252225222522,0.22532253225322532,0.22542254225422542,0.22552255225522552,0.22562256225622562,0.22572257225722572,0.22582258225822582,0.22592259225922592,0.22602260226022602,0.22612261226122612,0.22622262226222623,0.22632263226322633,0.22642264226422643,0.22652265226522653,0.22662266226622663,0.22672267226722673,0.22682268226822683,0.22692269226922693,0.22702270227022703,0.22712271227122713,0.22722272227222723,0.22732273227322733,0.22742274227422743,0.22752275227522753,0.22762276227622763,0.22772277227722773,0.22782278227822783,0.22792279227922793,0.22802280228022803,0.22812281228122813,0.22822282228222823,0.22832283228322833,0.22842284228422843,0.22852285228522853,0.22862286228622863,0.22872287228722873,0.22882288228822883,0.22892289228922894,0.22902290229022904,0.22912291229122914,0.22922292229222924,0.22932293229322934,0.22942294229422944,0.22952295229522954,0.22962296229622964,0.22972297229722974,0.22982298229822984,0.22992299229922994,0.23002300230023004,0.23012301230123014,0.23022302230223024,0.23032303230323034,0.23042304230423044,0.23052305230523054,0.23062306230623064,0.23072307230723074,0.23082308230823084,0.23092309230923094,0.23102310231023104,0.23112311231123114,0.23122312231223124,0.23132313231323134,0.23142314231423142,0.23152315231523152,0.23162316231623162,0.23172317231723172,0.23182318231823182,0.23192319231923192,0.23202320232023202,0.23212321232123212,0.23222322232223222,0.23232323232323232,0.23242324232423242,0.23252325232523252,0.23262326232623262,0.23272327232723272,0.23282328232823282,0.23292329232923292,0.23302330233023302,0.23312331233123312,0.23322332233223322,0.23332333233323332,0.23342334233423342,0.23352335233523352,0.23362336233623363,0.23372337233723373,0.23382338233823383,0.23392339233923393,0.23402340234023403,0.23412341234123413,0.23422342234223423,0.23432343234323433,0.23442344234423443,0.23452345234523453,0.23462346234623463,0.23472347234723473,0.23482348234823483,0.23492349234923493,0.23502350235023503,0.23512351235123513,0.23522352235223523,0.23532353235323533,0.23542354235423543,0.23552355235523553,0.23562356235623563,0.23572357235723573,0.23582358235823583,0.23592359235923593,0.23602360236023603,0.23612361236123613,0.23622362236223624,0.23632363236323634,0.23642364236423644,0.23652365236523654,0.23662366236623664,0.23672367236723674,0.23682368236823684,0.23692369236923694,0.23702370237023704,0.23712371237123714,0.23722372237223724,0.23732373237323734,0.23742374237423744,0.23752375237523754,0.23762376237623764,0.23772377237723774,0.23782378237823784,0.23792379237923794,0.23802380238023804,0.23812381238123814,0.23822382238223824,0.23832383238323834,0.23842384238423844,0.23852385238523854,0.23862386238623864,0.23872387238723874,0.23882388238823885,0.23892389238923895,0.23902390239023902,0.23912391239123912,0.23922392239223922,0.23932393239323932,0.23942394239423942,0.23952395239523952,0.23962396239623962,0.23972397239723972,0.23982398239823982,0.23992399239923992,0.24002400240024002,0.24012401240124012,0.24022402240224022,0.24032403240324032,0.24042404240424042,0.24052405240524052,0.24062406240624062,0.24072407240724072,0.24082408240824082,0.24092409240924093,0.24102410241024103,0.24112411241124113,0.24122412241224123,0.24132413241324133,0.24142414241424143,0.24152415241524153,0.24162416241624163,0.24172417241724173,0.24182418241824183,0.24192419241924193,0.24202420242024203,0.24212421242124213,0.24222422242224223,0.24232423242324233,0.24242424242424243,0.24252425242524253,0.24262426242624263,0.24272427242724273,0.24282428242824283,0.24292429242924293,0.24302430243024303,0.24312431243124313,0.24322432243224323,0.24332433243324333,0.24342434243424343,0.24352435243524354,0.24362436243624364,0.24372437243724374,0.24382438243824384,0.24392439243924394,0.24402440244024404,0.24412441244124414,0.24422442244224424,0.24432443244324434,0.24442444244424444,0.24452445244524454,0.24462446244624464,0.24472447244724474,0.24482448244824484,0.24492449244924494,0.24502450245024504,0.24512451245124514,0.24522452245224524,0.24532453245324534,0.24542454245424544,0.24552455245524554,0.24562456245624564,0.24572457245724574,0.24582458245824584,0.24592459245924594,0.24602460246024604,0.24612461246124615,0.24622462246224625,0.24632463246324635,0.24642464246424645,0.24652465246524655,0.24662466246624662,0.24672467246724672,0.24682468246824682,0.24692469246924692,0.24702470247024702,0.24712471247124712,0.24722472247224722,0.24732473247324732,0.24742474247424742,0.24752475247524752,0.24762476247624762,0.24772477247724772,0.24782478247824782,0.24792479247924792,0.24802480248024802,0.24812481248124812,0.24822482248224823,0.24832483248324833,0.24842484248424843,0.24852485248524853,0.24862486248624863,0.24872487248724873,0.24882488248824883,0.24892489248924893,0.24902490249024903,0.24912491249124913,0.24922492249224923,0.24932493249324933,0.24942494249424943,0.24952495249524953,0.24962496249624963,0.24972497249724973,0.24982498249824983,0.24992499249924993,0.25002500250025006,0.25012501250125013,0.25022502250225026,0.25032503250325033,0.25042504250425041,0.25052505250525053,0.25062506250625061,0.25072507250725073,0.25082508250825081,0.25092509250925094,0.25102510251025101,0.25112511251125114,0.25122512251225121,0.25132513251325134,0.25142514251425141,0.25152515251525154,0.25162516251625161,0.25172517251725174,0.25182518251825181,0.25192519251925194,0.25202520252025201,0.25212521252125214,0.25222522252225221,0.25232523252325234,0.25242524252425241,0.25252525252525254,0.25262526252625261,0.25272527252725274,0.25282528252825281,0.25292529252925294,0.25302530253025302,0.25312531253125314,0.25322532253225322,0.25332533253325334,0.25342534253425342,0.25352535253525355,0.25362536253625362,0.25372537253725375,0.25382538253825382,0.25392539253925395,0.25402540254025402,0.25412541254125415,0.25422542254225422,0.25432543254325435,0.25442544254425442,0.25452545254525455,0.25462546254625462,0.25472547254725475,0.25482548254825482,0.25492549254925495,0.25502550255025502,0.25512551255125515,0.25522552255225522,0.25532553255325535,0.25542554255425542,0.25552555255525555,0.25562556255625563,0.25572557255725575,0.25582558255825583,0.25592559255925595,0.25602560256025603,0.25612561256125616,0.25622562256225623,0.25632563256325636,0.25642564256425643,0.25652565256525656,0.25662566256625663,0.25672567256725676,0.25682568256825683,0.25692569256925696,0.25702570257025703,0.25712571257125716,0.25722572257225723,0.25732573257325736,0.25742574257425743,0.25752575257525756,0.25762576257625763,0.25772577257725776,0.25782578257825783,0.25792579257925791,0.25802580258025803,0.25812581258125811,0.25822582258225824,0.25832583258325831,0.25842584258425844,0.25852585258525851,0.25862586258625864,0.25872587258725871,0.25882588258825884,0.25892589258925891,0.25902590259025904,0.25912591259125911,0.25922592259225924,0.25932593259325931,0.25942594259425944,0.25952595259525951,0.25962596259625964,0.25972597259725971,0.25982598259825984,0.25992599259925991,0.26002600260026004,0.26012601260126011,0.26022602260226024,0.26032603260326032,0.26042604260426044,0.26052605260526052,0.26062606260626064,0.26072607260726072,0.26082608260826085,0.26092609260926092,0.26102610261026105,0.26112611261126112,0.26122612261226125,0.26132613261326132,0.26142614261426145,0.26152615261526152,0.26162616261626165,0.26172617261726172,0.26182618261826185,0.26192619261926192,0.26202620262026205,0.26212621262126212,0.26222622262226225,0.26232623262326232,0.26242624262426245,0.26252625262526252,0.26262626262626265,0.26272627262726272,0.26282628262826285,0.26292629262926293,0.26302630263026305,0.26312631263126313,0.26322632263226325,0.26332633263326333,0.26342634263426346,0.26352635263526353,0.26362636263626366,0.26372637263726373,0.26382638263826386,0.26392639263926393,0.26402640264026406,0.26412641264126413,0.26422642264226426,0.26432643264326433,0.26442644264426446,0.26452645264526453,0.26462646264626466,0.26472647264726473,0.26482648264826486,0.26492649264926493,0.26502650265026506,0.26512651265126513,0.26522652265226526,0.26532653265326533,0.26542654265426546,0.26552655265526554,0.26562656265626561,0.26572657265726574,0.26582658265826581,0.26592659265926594,0.26602660266026601,0.26612661266126614,0.26622662266226621,0.26632663266326634,0.26642664266426641,0.26652665266526654,0.26662666266626661,0.26672667266726674,0.26682668266826681,0.26692669266926694,0.26702670267026701,0.26712671267126714,0.26722672267226721,0.26732673267326734,0.26742674267426741,0.26752675267526754,0.26762676267626762,0.26772677267726774,0.26782678267826782,0.26792679267926794,0.26802680268026802,0.26812681268126815,0.26822682268226822,0.26832683268326835,0.26842684268426842,0.26852685268526855,0.26862686268626862,0.26872687268726875,0.26882688268826882,0.26892689268926895,0.26902690269026902,0.26912691269126915,0.26922692269226922,0.26932693269326935,0.26942694269426942,0.26952695269526955,0.26962696269626962,0.26972697269726975,0.26982698269826982,0.26992699269926995,0.27002700270027002,0.27012701270127015,0.27022702270227023,0.27032703270327035,0.27042704270427043,0.27052705270527055,0.27062706270627063,0.27072707270727076,0.27082708270827083,0.27092709270927096,0.27102710271027103,0.27112711271127116,0.27122712271227123,0.27132713271327136,0.27142714271427143,0.27152715271527156,0.27162716271627163,0.27172717271727176,0.27182718271827183,0.27192719271927196,0.27202720272027203,0.27212721272127216,0.27222722272227223,0.27232723272327236,0.27242724272427243,0.27252725272527256,0.27262726272627263,0.27272727272727276,0.27282728272827284,0.27292729272927296,0.27302730273027304,0.27312731273127311,0.27322732273227324,0.27332733273327331,0.27342734273427344,0.27352735273527351,0.27362736273627364,0.27372737273727371,0.27382738273827384,0.27392739273927391,0.27402740274027404,0.27412741274127411,0.27422742274227424,0.27432743274327431,0.27442744274427444,0.27452745274527451,0.27462746274627464,0.27472747274727471,0.27482748274827484,0.27492749274927492,0.27502750275027504,0.27512751275127512,0.27522752275227524,0.27532753275327532,0.27542754275427545,0.27552755275527552,0.27562756275627565,0.27572757275727572,0.27582758275827585,0.27592759275927592,0.27602760276027605,0.27612761276127612,0.27622762276227625,0.27632763276327632,0.27642764276427645,0.27652765276527652,0.27662766276627665,0.27672767276727672,0.27682768276827685,0.27692769276927692,0.27702770277027705,0.27712771277127712,0.27722772277227725,0.27732773277327732,0.27742774277427745,0.27752775277527753,0.27762776277627765,0.27772777277727773,0.27782778277827785,0.27792779277927793,0.27802780278027805,0.27812781278127813,0.27822782278227826,0.27832783278327833,0.27842784278427846,0.27852785278527853,0.27862786278627866,0.27872787278727873,0.27882788278827886,0.27892789278927893,0.27902790279027906,0.27912791279127913,0.27922792279227926,0.27932793279327933,0.27942794279427946,0.27952795279527953,0.27962796279627966,0.27972797279727973,0.27982798279827986,0.27992799279927993,0.28002800280028006,0.28012801280128014,0.28022802280228026,0.28032803280328034,0.28042804280428046,0.28052805280528054,0.28062806280628066,0.28072807280728074,0.28082808280828081,0.28092809280928094,0.28102810281028101,0.28112811281128114,0.28122812281228121,0.28132813281328134,0.28142814281428141,0.28152815281528154,0.28162816281628161,0.28172817281728174,0.28182818281828181,0.28192819281928194,0.28202820282028201,0.28212821282128214,0.28222822282228222,0.28232823282328234,0.28242824282428242,0.28252825282528254,0.28262826282628262,0.28272827282728275,0.28282828282828282,0.28292829282928295,0.28302830283028302,0.28312831283128315,0.28322832283228322,0.28332833283328335,0.28342834283428342,0.28352835283528355,0.28362836283628362,0.28372837283728375,0.28382838283828382,0.28392839283928395,0.28402840284028402,0.28412841284128415,0.28422842284228422,0.28432843284328435,0.28442844284428442,0.28452845284528455,0.28462846284628462,0.28472847284728475,0.28482848284828483,0.28492849284928495,0.28502850285028503,0.28512851285128515,0.28522852285228523,0.28532853285328535,0.28542854285428543,0.28552855285528556,0.28562856285628563,0.28572857285728576,0.28582858285828583,0.28592859285928596,0.28602860286028603,0.28612861286128616,0.28622862286228623,0.28632863286328636,0.28642864286428643,0.28652865286528656,0.28662866286628663,0.28672867286728676,0.28682868286828683,0.28692869286928696,0.28702870287028703,0.28712871287128716,0.28722872287228723,0.28732873287328736,0.28742874287428744,0.28752875287528756,0.28762876287628764,0.28772877287728776,0.28782878287828784,0.28792879287928796,0.28802880288028804,0.28812881288128817,0.28822882288228824,0.28832883288328831,0.28842884288428844,0.28852885288528851,0.28862886288628864,0.28872887288728871,0.28882888288828884,0.28892889288928891,0.28902890289028904,0.28912891289128911,0.28922892289228924,0.28932893289328931,0.28942894289428944,0.28952895289528952,0.28962896289628964,0.28972897289728972,0.28982898289828984,0.28992899289928992,0.29002900290029004,0.29012901290129012,0.29022902290229025,0.29032903290329032,0.29042904290429045,0.29052905290529052,0.29062906290629065,0.29072907290729072,0.29082908290829085,0.29092909290929092,0.29102910291029105,0.29112911291129112,0.29122912291229125,0.29132913291329132,0.29142914291429145,0.29152915291529152,0.29162916291629165,0.29172917291729172,0.29182918291829185,0.29192919291929192,0.29202920292029205,0.29212921292129213,0.29222922292229225,0.29232923292329233,0.29242924292429245,0.29252925292529253,0.29262926292629265,0.29272927292729273,0.29282928292829286,0.29292929292929293,0.29302930293029306,0.29312931293129313,0.29322932293229326,0.29332933293329333,0.29342934293429346,0.29352935293529353,0.29362936293629366,0.29372937293729373,0.29382938293829386,0.29392939293929393,0.29402940294029406,0.29412941294129413,0.29422942294229426,0.29432943294329433,0.29442944294429446,0.29452945294529453,0.29462946294629466,0.29472947294729473,0.29482948294829486,0.29492949294929494,0.29502950295029506,0.29512951295129514,0.29522952295229526,0.29532953295329534,0.29542954295429547,0.29552955295529554,0.29562956295629567,0.29572957295729574,0.29582958295829587,0.29592959295929594,0.29602960296029601,0.29612961296129614,0.29622962296229621,0.29632963296329634,0.29642964296429641,0.29652965296529654,0.29662966296629661,0.29672967296729674,0.29682968296829682,0.29692969296929694,0.29702970297029702,0.29712971297129714,0.29722972297229722,0.29732973297329734,0.29742974297429742,0.29752975297529755,0.29762976297629762,0.29772977297729775,0.29782978297829782,0.29792979297929795,0.29802980298029802,0.29812981298129815,0.29822982298229822,0.29832983298329835,0.29842984298429842,0.29852985298529855,0.29862986298629862,0.29872987298729875,0.29882988298829882,0.29892989298929895,0.29902990299029902,0.29912991299129915,0.29922992299229922,0.29932993299329935,0.29942994299429943,0.29952995299529955,0.29962996299629963,0.29972997299729975,0.29982998299829983,0.29992999299929995,0.30003000300030003,0.30013001300130016,0.30023002300230023,0.30033003300330036,0.30043004300430043,0.30053005300530056,0.30063006300630063,0.30073007300730076,0.30083008300830083,0.30093009300930096,0.30103010301030103,0.30113011301130116,0.30123012301230123,0.30133013301330136,0.30143014301430143,0.30153015301530156,0.30163016301630163,0.30173017301730176,0.30183018301830183,0.30193019301930196,0.30203020302030203,0.30213021302130216,0.30223022302230224,0.30233023302330236,0.30243024302430244,0.30253025302530256,0.30263026302630264,0.30273027302730277,0.30283028302830284,0.30293029302930297,0.30303030303030304,0.30313031303130317,0.30323032303230324,0.30333033303330337,0.30343034303430344,0.30353035303530351,0.30363036303630364,0.30373037303730371,0.30383038303830384,0.30393039303930391,0.30403040304030404,0.30413041304130412,0.30423042304230424,0.30433043304330432,0.30443044304430444,0.30453045304530452,0.30463046304630464,0.30473047304730472,0.30483048304830485,0.30493049304930492,0.30503050305030505,0.30513051305130512,0.30523052305230525,0.30533053305330532,0.30543054305430545,0.30553055305530552,0.30563056305630565,0.30573057305730572,0.30583058305830585,0.30593059305930592,0.30603060306030605,0.30613061306130612,0.30623062306230625,0.30633063306330632,0.30643064306430645,0.30653065306530652,0.30663066306630665,0.30673067306730672,0.30683068306830685,0.30693069306930693,0.30703070307030705,0.30713071307130713,0.30723072307230725,0.30733073307330733,0.30743074307430746,0.30753075307530753,0.30763076307630766,0.30773077307730773,0.30783078307830786,0.30793079307930793,0.30803080308030806,0.30813081308130813,0.30823082308230826,0.30833083308330833,0.30843084308430846,0.30853085308530853,0.30863086308630866,0.30873087308730873,0.30883088308830886,0.30893089308930893,0.30903090309030906,0.30913091309130913,0.30923092309230926,0.30933093309330933,0.30943094309430946,0.30953095309530954,0.30963096309630966,0.30973097309730974,0.30983098309830986,0.30993099309930994,0.31003100310031007,0.31013101310131014,0.31023102310231027,0.31033103310331034,0.31043104310431047,0.31053105310531054,0.31063106310631067,0.31073107310731074,0.31083108310831087,0.31093109310931094,0.31103110311031101,0.31113111311131114,0.31123112311231121,0.31133113311331134,0.31143114311431142,0.31153115311531154,0.31163116311631162,0.31173117311731174,0.31183118311831182,0.31193119311931194,0.31203120312031202,0.31213121312131215,0.31223122312231222,0.31233123312331235,0.31243124312431242,0.31253125312531255,0.31263126312631262,0.31273127312731275,0.31283128312831282,0.31293129312931295,0.31303130313031302,0.31313131313131315,0.31323132313231322,0.31333133313331335,0.31343134313431342,0.31353135313531355,0.31363136313631362,0.31373137313731375,0.31383138313831382,0.31393139313931395,0.31403140314031402,0.31413141314131415,0.31423142314231423,0.31433143314331435,0.31443144314431443,0.31453145314531455,0.31463146314631463,0.31473147314731476,0.31483148314831483,0.31493149314931496,0.31503150315031503,0.31513151315131516,0.31523152315231523,0.31533153315331536,0.31543154315431543,0.31553155315531556,0.31563156315631563,0.31573157315731576,0.31583158315831583,0.31593159315931596,0.31603160316031603,0.31613161316131616,0.31623162316231623,0.31633163316331636,0.31643164316431643,0.31653165316531656,0.31663166316631663,0.31673167316731676,0.31683168316831684,0.31693169316931696,0.31703170317031704,0.31713171317131716,0.31723172317231724,0.31733173317331737,0.31743174317431744,0.31753175317531757,0.31763176317631764,0.31773177317731777,0.31783178317831784,0.31793179317931797,0.31803180318031804,0.31813181318131817,0.31823182318231824,0.31833183318331837,0.31843184318431844,0.31853185318531857,0.31863186318631864,0.31873187318731871,0.31883188318831884,0.31893189318931892,0.31903190319031904,0.31913191319131912,0.31923192319231924,0.31933193319331932,0.31943194319431945,0.31953195319531952,0.31963196319631965,0.31973197319731972,0.31983198319831985,0.31993199319931992,0.32003200320032005,0.32013201320132012,0.32023202320232025,0.32033203320332032,0.32043204320432045,0.32053205320532052,0.32063206320632065,0.32073207320732072,0.32083208320832085,0.32093209320932092,0.32103210321032105,0.32113211321132112,0.32123212321232125,0.32133213321332132,0.32143214321432145,0.32153215321532153,0.32163216321632165,0.32173217321732173,0.32183218321832185,0.32193219321932193,0.32203220322032206,0.32213221322132213,0.32223222322232226,0.32233223322332233,0.32243224322432246,0.32253225322532253,0.32263226322632266,0.32273227322732273,0.32283228322832286,0.32293229322932293,0.32303230323032306,0.32313231323132313,0.32323232323232326,0.32333233323332333,0.32343234323432346,0.32353235323532353,0.32363236323632366,0.32373237323732373,0.32383238323832386,0.32393239323932393,0.32403240324032406,0.32413241324132414,0.32423242324232426,0.32433243324332434,0.32443244324432446,0.32453245324532454,0.32463246324632467,0.32473247324732474,0.32483248324832487,0.32493249324932494,0.32503250325032507,0.32513251325132514,0.32523252325232527,0.32533253325332534,0.32543254325432547,0.32553255325532554,0.32563256325632567,0.32573257325732574,0.32583258325832587,0.32593259325932594,0.32603260326032607,0.32613261326132614,0.32623262326232622,0.32633263326332634,0.32643264326432642,0.32653265326532654,0.32663266326632662,0.32673267326732675,0.32683268326832682,0.32693269326932695,0.32703270327032702,0.32713271327132715,0.32723272327232722,0.32733273327332735,0.32743274327432742,0.32753275327532755,0.32763276327632762,0.32773277327732775,0.32783278327832782,0.32793279327932795,0.32803280328032802,0.32813281328132815,0.32823282328232822,0.32833283328332835,0.32843284328432842,0.32853285328532855,0.32863286328632862,0.32873287328732875,0.32883288328832883,0.32893289328932895,0.32903290329032903,0.32913291329132915,0.32923292329232923,0.32933293329332936,0.32943294329432943,0.32953295329532956,0.32963296329632963,0.32973297329732976,0.32983298329832983,0.32993299329932996,0.33003300330033003,0.33013301330133016,0.33023302330233023,0.33033303330333036,0.33043304330433043,0.33053305330533056,0.33063306330633063,0.33073307330733076,0.33083308330833083,0.33093309330933096,0.33103310331033103,0.33113311331133116,0.33123312331233123,0.33133313331333136,0.33143314331433144,0.33153315331533156,0.33163316331633164,0.33173317331733176,0.33183318331833184,0.33193319331933197,0.33203320332033204,0.33213321332133217,0.33223322332233224,0.33233323332333237,0.33243324332433244,0.33253325332533257,0.33263326332633264,0.33273327332733277,0.33283328332833284,0.33293329332933297,0.33303330333033304,0.33313331333133317,0.33323332333233324,0.33333333333333337,0.33343334333433344,0.33353335333533357,0.33363336333633364,0.33373337333733377,0.33383338333833384,0.33393339333933392,0.33403340334033405,0.33413341334133412,0.33423342334233425,0.33433343334333432,0.33443344334433445,0.33453345334533452,0.33463346334633465,0.33473347334733472,0.33483348334833485,0.33493349334933492,0.33503350335033505,0.33513351335133512,0.33523352335233525,0.33533353335333532,0.33543354335433545,0.33553355335533552,0.33563356335633565,0.33573357335733572,0.33583358335833585,0.33593359335933592,0.33603360336033605,0.33613361336133613,0.33623362336233625,0.33633363336333633,0.33643364336433645,0.33653365336533653,0.33663366336633666,0.33673367336733673,0.33683368336833686,0.33693369336933693,0.33703370337033706,0.33713371337133713,0.33723372337233726,0.33733373337333733,0.33743374337433746,0.33753375337533753,0.33763376337633766,0.33773377337733773,0.33783378337833786,0.33793379337933793,0.33803380338033806,0.33813381338133813,0.33823382338233826,0.33833383338333833,0.33843384338433846,0.33853385338533853,0.33863386338633866,0.33873387338733874,0.33883388338833886,0.33893389338933894,0.33903390339033906,0.33913391339133914,0.33923392339233926,0.33933393339333934,0.33943394339433947,0.33953395339533954,0.33963396339633967,0.33973397339733974,0.33983398339833987,0.33993399339933994,0.34003400340034007,0.34013401340134014,0.34023402340234027,0.34033403340334034,0.34043404340434047,0.34053405340534054,0.34063406340634067,0.34073407340734074,0.34083408340834087,0.34093409340934094,0.34103410341034107,0.34113411341134114,0.34123412341234127,0.34133413341334135,0.34143414341434142,0.34153415341534155,0.34163416341634162,0.34173417341734175,0.34183418341834182,0.34193419341934195,0.34203420342034202,0.34213421342134215,0.34223422342234222,0.34233423342334235,0.34243424342434242,0.34253425342534255,0.34263426342634262,0.34273427342734275,0.34283428342834282,0.34293429342934295,0.34303430343034302,0.34313431343134315,0.34323432343234322,0.34333433343334335,0.34343434343434343,0.34353435343534355,0.34363436343634363,0.34373437343734375,0.34383438343834383,0.34393439343934396,0.34403440344034403,0.34413441344134416,0.34423442344234423,0.34433443344334436,0.34443444344434443,0.34453445344534456,0.34463446344634463,0.34473447344734476,0.34483448344834483,0.34493449344934496,0.34503450345034503,0.34513451345134516,0.34523452345234523,0.34533453345334536,0.34543454345434543,0.34553455345534556,0.34563456345634563,0.34573457345734576,0.34583458345834583,0.34593459345934596,0.34603460346034604,0.34613461346134616,0.34623462346234624,0.34633463346334636,0.34643464346434644,0.34653465346534656,0.34663466346634664,0.34673467346734677,0.34683468346834684,0.34693469346934697,0.34703470347034704,0.34713471347134717,0.34723472347234724,0.34733473347334737,0.34743474347434744,0.34753475347534757,0.34763476347634764,0.34773477347734777,0.34783478347834784,0.34793479347934797,0.34803480348034804,0.34813481348134817,0.34823482348234824,0.34833483348334837,0.34843484348434844,0.34853485348534857,0.34863486348634865,0.34873487348734877,0.34883488348834885,0.34893489348934897,0.34903490349034905,0.34913491349134912,0.34923492349234925,0.34933493349334932,0.34943494349434945,0.34953495349534952,0.34963496349634965,0.34973497349734972,0.34983498349834985,0.34993499349934992,0.35003500350035005,0.35013501350135012,0.35023502350235025,0.35033503350335032,0.35043504350435045,0.35053505350535052,0.35063506350635065,0.35073507350735073,0.35083508350835085,0.35093509350935093,0.35103510351035105,0.35113511351135113,0.35123512351235125,0.35133513351335133,0.35143514351435146,0.35153515351535153,0.35163516351635166,0.35173517351735173,0.35183518351835186,0.35193519351935193,0.35203520352035206,0.35213521352135213,0.35223522352235226,0.35233523352335233,0.35243524352435246,0.35253525352535253,0.35263526352635266,0.35273527352735273,0.35283528352835286,0.35293529352935293,0.35303530353035306,0.35313531353135313,0.35323532353235326,0.35333533353335334,0.35343534353435346,0.35353535353535354,0.35363536353635366,0.35373537353735374,0.35383538353835386,0.35393539353935394,0.35403540354035407,0.35413541354135414,0.35423542354235427,0.35433543354335434,0.35443544354435447,0.35453545354535454,0.35463546354635467,0.35473547354735474,0.35483548354835487,0.35493549354935494,0.35503550355035507,0.35513551355135514,0.35523552355235527,0.35533553355335534,0.35543554355435547,0.35553555355535554,0.35563556355635567,0.35573557355735574,0.35583558355835587,0.35593559355935595,0.35603560356035607,0.35613561356135615,0.35623562356235627,0.35633563356335635,0.35643564356435647,0.35653565356535655,0.35663566356635662,0.35673567356735675,0.35683568356835682,0.35693569356935695,0.35703570357035702,0.35713571357135715,0.35723572357235722,0.35733573357335735,0.35743574357435742,0.35753575357535755,0.35763576357635762,0.35773577357735775,0.35783578357835782,0.35793579357935795,0.35803580358035803,0.35813581358135815,0.35823582358235823,0.35833583358335835,0.35843584358435843,0.35853585358535855,0.35863586358635863,0.35873587358735876,0.35883588358835883,0.35893589358935896,0.35903590359035903,0.35913591359135916,0.35923592359235923,0.35933593359335936,0.35943594359435943,0.35953595359535956,0.35963596359635963,0.35973597359735976,0.35983598359835983,0.35993599359935996,0.36003600360036003,0.36013601360136016,0.36023602360236023,0.36033603360336036,0.36043604360436043,0.36053605360536056,0.36063606360636064,0.36073607360736076,0.36083608360836084,0.36093609360936096,0.36103610361036104,0.36113611361136116,0.36123612361236124,0.36133613361336137,0.36143614361436144,0.36153615361536157,0.36163616361636164,0.36173617361736177,0.36183618361836184,0.36193619361936197,0.36203620362036204,0.36213621362136217,0.36223622362236224,0.36233623362336237,0.36243624362436244,0.36253625362536257,0.36263626362636264,0.36273627362736277,0.36283628362836284,0.36293629362936297,0.36303630363036304,0.36313631363136317,0.36323632363236324,0.36333633363336337,0.36343634363436345,0.36353635363536357,0.36363636363636365,0.36373637363736377,0.36383638363836385,0.36393639363936398,0.36403640364036405,0.36413641364136412,0.36423642364236425,0.36433643364336432,0.36443644364436445,0.36453645364536452,0.36463646364636465,0.36473647364736472,0.36483648364836485,0.36493649364936492,0.36503650365036505,0.36513651365136512,0.36523652365236525,0.36533653365336533,0.36543654365436545,0.36553655365536553,0.36563656365636565,0.36573657365736573,0.36583658365836585,0.36593659365936593,0.36603660366036606,0.36613661366136613,0.36623662366236626,0.36633663366336633,0.36643664366436646,0.36653665366536653,0.36663666366636666,0.36673667366736673,0.36683668366836686,0.36693669366936693,0.36703670367036706,0.36713671367136713,0.36723672367236726,0.36733673367336733,0.36743674367436746,0.36753675367536753,0.36763676367636766,0.36773677367736773,0.36783678367836786,0.36793679367936794,0.36803680368036806,0.36813681368136814,0.36823682368236826,0.36833683368336834,0.36843684368436846,0.36853685368536854,0.36863686368636867,0.36873687368736874,0.36883688368836887,0.36893689368936894,0.36903690369036907,0.36913691369136914,0.36923692369236927,0.36933693369336934,0.36943694369436947,0.36953695369536954,0.36963696369636967,0.36973697369736974,0.36983698369836987,0.36993699369936994,0.37003700370037007,0.37013701370137014,0.37023702370237027,0.37033703370337034,0.37043704370437047,0.37053705370537054,0.37063706370637067,0.37073707370737075,0.37083708370837087,0.37093709370937095,0.37103710371037107,0.37113711371137115,0.37123712371237128,0.37133713371337135,0.37143714371437148,0.37153715371537155,0.37163716371637168,0.37173717371737175,0.37183718371837182,0.37193719371937195,0.37203720372037202,0.37213721372137215,0.37223722372237222,0.37233723372337235,0.37243724372437242,0.37253725372537255,0.37263726372637263,0.37273727372737275,0.37283728372837283,0.37293729372937295,0.37303730373037303,0.37313731373137315,0.37323732373237323,0.37333733373337336,0.37343734373437343,0.37353735373537356,0.37363736373637363,0.37373737373737376,0.37383738373837383,0.37393739373937396,0.37403740374037403,0.37413741374137416,0.37423742374237423,0.37433743374337436,0.37443744374437443,0.37453745374537456,0.37463746374637463,0.37473747374737476,0.37483748374837483,0.37493749374937496,0.37503750375037503,0.37513751375137516,0.37523752375237523,0.37533753375337536,0.37543754375437544,0.37553755375537556,0.37563756375637564,0.37573757375737576,0.37583758375837584,0.37593759375937597,0.37603760376037604,0.37613761376137617,0.37623762376237624,0.37633763376337637,0.37643764376437644,0.37653765376537657,0.37663766376637664,0.37673767376737677,0.37683768376837684,0.37693769376937697,0.37703770377037704,0.37713771377137717,0.37723772377237724,0.37733773377337737,0.37743774377437744,0.37753775377537757,0.37763776377637764,0.37773777377737777,0.37783778377837784,0.37793779377937797,0.37803780378037805,0.37813781378137817,0.37823782378237825,0.37833783378337837,0.37843784378437845,0.37853785378537858,0.37863786378637865,0.37873787378737878,0.37883788378837885,0.37893789378937898,0.37903790379037905,0.37913791379137918,0.37923792379237925,0.37933793379337932,0.37943794379437945,0.37953795379537952,0.37963796379637965,0.37973797379737972,0.37983798379837985,0.37993799379937992,0.38003800380038005,0.38013801380138013,0.38023802380238025,0.38033803380338033,0.38043804380438045,0.38053805380538053,0.38063806380638066,0.38073807380738073,0.38083808380838086,0.38093809380938093,0.38103810381038106,0.38113811381138113,0.38123812381238126,0.38133813381338133,0.38143814381438146,0.38153815381538153,0.38163816381638166,0.38173817381738173,0.38183818381838186,0.38193819381938193,0.38203820382038206,0.38213821382138213,0.38223822382238226,0.38233823382338233,0.38243824382438246,0.38253825382538253,0.38263826382638266,0.38273827382738274,0.38283828382838286,0.38293829382938294,0.38303830383038306,0.38313831383138314,0.38323832383238327,0.38333833383338334,0.38343834383438347,0.38353835383538354,0.38363836383638367,0.38373837383738374,0.38383838383838387,0.38393839383938394,0.38403840384038407,0.38413841384138414,0.38423842384238427,0.38433843384338434,0.38443844384438447,0.38453845384538454,0.38463846384638467,0.38473847384738474,0.38483848384838487,0.38493849384938494,0.38503850385038507,0.38513851385138514,0.38523852385238527,0.38533853385338535,0.38543854385438547,0.38553855385538555,0.38563856385638567,0.38573857385738575,0.38583858385838588,0.38593859385938595,0.38603860386038608,0.38613861386138615,0.38623862386238628,0.38633863386338635,0.38643864386438648,0.38653865386538655,0.38663866386638668,0.38673867386738675,0.38683868386838688,0.38693869386938695,0.38703870387038702,0.38713871387138715,0.38723872387238722,0.38733873387338735,0.38743874387438743,0.38753875387538755,0.38763876387638763,0.38773877387738775,0.38783878387838783,0.38793879387938796,0.38803880388038803,0.38813881388138816,0.38823882388238823,0.38833883388338836,0.38843884388438843,0.38853885388538856,0.38863886388638863,0.38873887388738876,0.38883888388838883,0.38893889388938896,0.38903890389038903,0.38913891389138916,0.38923892389238923,0.38933893389338936,0.38943894389438943,0.38953895389538956,0.38963896389638963,0.38973897389738976,0.38983898389838983,0.38993899389938996,0.39003900390039004,0.39013901390139016,0.39023902390239024,0.39033903390339036,0.39043904390439044,0.39053905390539057,0.39063906390639064,0.39073907390739077,0.39083908390839084,0.39093909390939097,0.39103910391039104,0.39113911391139117,0.39123912391239124,0.39133913391339137,0.39143914391439144,0.39153915391539157,0.39163916391639164,0.39173917391739177,0.39183918391839184,0.39193919391939197,0.39203920392039204,0.39213921392139217,0.39223922392239224,0.39233923392339237,0.39243924392439244,0.39253925392539257,0.39263926392639265,0.39273927392739277,0.39283928392839285,0.39293929392939297,0.39303930393039305,0.39313931393139318,0.39323932393239325,0.39333933393339338,0.39343934393439345,0.39353935393539358,0.39363936393639365,0.39373937393739378,0.39383938393839385,0.39393939393939398,0.39403940394039405,0.39413941394139418,0.39423942394239425,0.39433943394339438,0.39443944394439445,0.39453945394539452,0.39463946394639465,0.39473947394739473,0.39483948394839485,0.39493949394939493,0.39503950395039505,0.39513951395139513,0.39523952395239526,0.39533953395339533,0.39543954395439546,0.39553955395539553,0.39563956395639566,0.39573957395739573,0.39583958395839586,0.39593959395939593,0.39603960396039606,0.39613961396139613,0.39623962396239626,0.39633963396339633,0.39643964396439646,0.39653965396539653,0.39663966396639666,0.39673967396739673,0.39683968396839686,0.39693969396939693,0.39703970397039706,0.39713971397139713,0.39723972397239726,0.39733973397339734,0.39743974397439746,0.39753975397539754,0.39763976397639766,0.39773977397739774,0.39783978397839787,0.39793979397939794,0.39803980398039807,0.39813981398139814,0.39823982398239827,0.39833983398339834,0.39843984398439847,0.39853985398539854,0.39863986398639867,0.39873987398739874,0.39883988398839887,0.39893989398939894,0.39903990399039907,0.39913991399139914,0.39923992399239927,0.39933993399339934,0.39943994399439947,0.39953995399539954,0.39963996399639967,0.39973997399739974,0.39983998399839987,0.39993999399939995,0.40004000400040007,0.40014001400140015,0.40024002400240027,0.40034003400340035,0.40044004400440047,0.40054005400540055,0.40064006400640068,0.40074007400740075,0.40084008400840088,0.40094009400940095,0.40104010401040108,0.40114011401140115,0.40124012401240128,0.40134013401340135,0.40144014401440148,0.40154015401540155,0.40164016401640168,0.40174017401740175,0.40184018401840188,0.40194019401940195,0.40204020402040208,0.40214021402140215,0.40224022402240223,0.40234023402340235,0.40244024402440243,0.40254025402540256,0.40264026402640263,0.40274027402740276,0.40284028402840283,0.40294029402940296,0.40304030403040303,0.40314031403140316,0.40324032403240323,0.40334033403340336,0.40344034403440343,0.40354035403540356,0.40364036403640363,0.40374037403740376,0.40384038403840383,0.40394039403940396,0.40404040404040403,0.40414041404140416,0.40424042404240423,0.40434043404340436,0.40444044404440443,0.40454045404540456,0.40464046404640464,0.40474047404740476,0.40484048404840484,0.40494049404940496,0.40504050405040504,0.40514051405140517,0.40524052405240524,0.40534053405340537,0.40544054405440544,0.40554055405540557,0.40564056405640564,0.40574057405740577,0.40584058405840584,0.40594059405940597,0.40604060406040604,0.40614061406140617,0.40624062406240624,0.40634063406340637,0.40644064406440644,0.40654065406540657,0.40664066406640664,0.40674067406740677,0.40684068406840684,0.40694069406940697,0.40704070407040704,0.40714071407140717,0.40724072407240725,0.40734073407340737,0.40744074407440745,0.40754075407540757,0.40764076407640765,0.40774077407740777,0.40784078407840785,0.40794079407940798,0.40804080408040805,0.40814081408140818,0.40824082408240825,0.40834083408340838,0.40844084408440845,0.40854085408540858,0.40864086408640865,0.40874087408740878,0.40884088408840885,0.40894089408940898,0.40904090409040905,0.40914091409140918,0.40924092409240925,0.40934093409340938,0.40944094409440945,0.40954095409540958,0.40964096409640965,0.40974097409740973,0.40984098409840986,0.40994099409940993,0.41004100410041006,0.41014101410141013,0.41024102410241026,0.41034103410341033,0.41044104410441046,0.41054105410541053,0.41064106410641066,0.41074107410741073,0.41084108410841086,0.41094109410941093,0.41104110411041106,0.41114111411141113,0.41124112411241126,0.41134113411341133,0.41144114411441146,0.41154115411541153,0.41164116411641166,0.41174117411741173,0.41184118411841186,0.41194119411941194,0.41204120412041206,0.41214121412141214,0.41224122412241226,0.41234123412341234,0.41244124412441246,0.41254125412541254,0.41264126412641267,0.41274127412741274,0.41284128412841287,0.41294129412941294,0.41304130413041307,0.41314131413141314,0.41324132413241327,0.41334133413341334,0.41344134413441347,0.41354135413541354,0.41364136413641367,0.41374137413741374,0.41384138413841387,0.41394139413941394,0.41404140414041407,0.41414141414141414,0.41424142414241427,0.41434143414341434,0.41444144414441447,0.41454145414541455,0.41464146414641467,0.41474147414741475,0.41484148414841487,0.41494149414941495,0.41504150415041507,0.41514151415141515,0.41524152415241528,0.41534153415341535,0.41544154415441548,0.41554155415541555,0.41564156415641568,0.41574157415741575,0.41584158415841588,0.41594159415941595,0.41604160416041608,0.41614161416141615,0.41624162416241628,0.41634163416341635,0.41644164416441648,0.41654165416541655,0.41664166416641668,0.41674167416741675,0.41684168416841688,0.41694169416941695,0.41704170417041708,0.41714171417141716,0.41724172417241723,0.41734173417341736,0.41744174417441743,0.41754175417541756,0.41764176417641763,0.41774177417741776,0.41784178417841783,0.41794179417941796,0.41804180418041803,0.41814181418141816,0.41824182418241823,0.41834183418341836,0.41844184418441843,0.41854185418541856,0.41864186418641863,0.41874187418741876,0.41884188418841883,0.41894189418941896,0.41904190419041903,0.41914191419141916,0.41924192419241924,0.41934193419341936,0.41944194419441944,0.41954195419541956,0.41964196419641964,0.41974197419741976,0.41984198419841984,0.41994199419941997,0.42004200420042004,0.42014201420142017,0.42024202420242024,0.42034203420342037,0.42044204420442044,0.42054205420542057,0.42064206420642064,0.42074207420742077,0.42084208420842084,0.42094209420942097,0.42104210421042104,0.42114211421142117,0.42124212421242124,0.42134213421342137,0.42144214421442144,0.42154215421542157,0.42164216421642164,0.42174217421742177,0.42184218421842185,0.42194219421942197,0.42204220422042205,0.42214221422142217,0.42224222422242225,0.42234223422342237,0.42244224422442245,0.42254225422542258,0.42264226422642265,0.42274227422742278,0.42284228422842285,0.42294229422942298,0.42304230423042305,0.42314231423142318,0.42324232423242325,0.42334233423342338,0.42344234423442345,0.42354235423542358,0.42364236423642365,0.42374237423742378,0.42384238423842385,0.42394239423942398,0.42404240424042405,0.42414241424142418,0.42424242424242425,0.42434243424342438,0.42444244424442445,0.42454245424542458,0.42464246424642466,0.42474247424742478,0.42484248424842486,0.42494249424942493,0.42504250425042506,0.42514251425142513,0.42524252425242526,0.42534253425342533,0.42544254425442546,0.42554255425542553,0.42564256425642566,0.42574257425742573,0.42584258425842586,0.42594259425942593,0.42604260426042606,0.42614261426142613,0.42624262426242626,0.42634263426342633,0.42644264426442646,0.42654265426542654,0.42664266426642666,0.42674267426742674,0.42684268426842686,0.42694269426942694,0.42704270427042706,0.42714271427142714,0.42724272427242727,0.42734273427342734,0.42744274427442747,0.42754275427542754,0.42764276427642767,0.42774277427742774,0.42784278427842787,0.42794279427942794,0.42804280428042807,0.42814281428142814,0.42824282428242827,0.42834283428342834,0.42844284428442847,0.42854285428542854,0.42864286428642867,0.42874287428742874,0.42884288428842887,0.42894289428942894,0.42904290429042907,0.42914291429142915,0.42924292429242927,0.42934293429342935,0.42944294429442947,0.42954295429542955,0.42964296429642967,0.42974297429742975,0.42984298429842988,0.42994299429942995,0.43004300430043008,0.43014301430143015,0.43024302430243028,0.43034303430343035,0.43044304430443048,0.43054305430543055,0.43064306430643068,0.43074307430743075,0.43084308430843088,0.43094309430943095,0.43104310431043108,0.43114311431143115,0.43124312431243128,0.43134313431343135,0.43144314431443148,0.43154315431543155,0.43164316431643168,0.43174317431743175,0.43184318431843188,0.43194319431943196,0.43204320432043208,0.43214321432143216,0.43224322432243228,0.43234323432343236,0.43244324432443243,0.43254325432543256,0.43264326432643263,0.43274327432743276,0.43284328432843283,0.43294329432943296,0.43304330433043303,0.43314331433143316,0.43324332433243323,0.43334333433343336,0.43344334433443343,0.43354335433543356,0.43364336433643363,0.43374337433743376,0.43384338433843384,0.43394339433943396,0.43404340434043404,0.43414341434143416,0.43424342434243424,0.43434343434343436,0.43444344434443444,0.43454345434543457,0.43464346434643464,0.43474347434743477,0.43484348434843484,0.43494349434943497,0.43504350435043504,0.43514351435143517,0.43524352435243524,0.43534353435343537,0.43544354435443544,0.43554355435543557,0.43564356435643564,0.43574357435743577,0.43584358435843584,0.43594359435943597,0.43604360436043604,0.43614361436143617,0.43624362436243624,0.43634363436343637,0.43644364436443644,0.43654365436543657,0.43664366436643665,0.43674367436743677,0.43684368436843685,0.43694369436943697,0.43704370437043705,0.43714371437143718,0.43724372437243725,0.43734373437343738,0.43744374437443745,0.43754375437543758,0.43764376437643765,0.43774377437743778,0.43784378437843785,0.43794379437943798,0.43804380438043805,0.43814381438143818,0.43824382438243825,0.43834383438343838,0.43844384438443845,0.43854385438543858,0.43864386438643865,0.43874387438743878,0.43884388438843885,0.43894389438943898,0.43904390439043905,0.43914391439143918,0.43924392439243926,0.43934393439343938,0.43944394439443946,0.43954395439543958,0.43964396439643966,0.43974397439743979,0.43984398439843986,0.43994399439943999,0.44004400440044006,0.44014401440144013,0.44024402440244026,0.44034403440344033,0.44044404440444046,0.44054405440544053,0.44064406440644066,0.44074407440744073,0.44084408440844086,0.44094409440944093,0.44104410441044106,0.44114411441144114,0.44124412441244126,0.44134413441344134,0.44144414441444146,0.44154415441544154,0.44164416441644166,0.44174417441744174,0.44184418441844187,0.44194419441944194,0.44204420442044207,0.44214421442144214,0.44224422442244227,0.44234423442344234,0.44244424442444247,0.44254425442544254,0.44264426442644267,0.44274427442744274,0.44284428442844287,0.44294429442944294,0.44304430443044307,0.44314431443144314,0.44324432443244327,0.44334433443344334,0.44344434443444347,0.44354435443544354,0.44364436443644367,0.44374437443744374,0.44384438443844387,0.44394439443944395,0.44404440444044407,0.44414441444144415,0.44424442444244427,0.44434443444344435,0.44444444444444448,0.44454445444544455,0.44464446444644468,0.44474447444744475,0.44484448444844488,0.44494449444944495,0.44504450445044508,0.44514451445144515,0.44524452445244528,0.44534453445344535,0.44544454445444548,0.44554455445544555,0.44564456445644568,0.44574457445744575,0.44584458445844588,0.44594459445944595,0.44604460446044608,0.44614461446144615,0.44624462446244628,0.44634463446344635,0.44644464446444648,0.44654465446544656,0.44664466446644668,0.44674467446744676,0.44684468446844688,0.44694469446944696,0.44704470447044709,0.44714471447144716,0.44724472447244729,0.44734473447344736,0.44744474447444749,0.44754475447544756,0.44764476447644763,0.44774477447744776,0.44784478447844783,0.44794479447944796,0.44804480448044803,0.44814481448144816,0.44824482448244823,0.44834483448344836,0.44844484448444843,0.44854485448544856,0.44864486448644864,0.44874487448744876,0.44884488448844884,0.44894489448944896,0.44904490449044904,0.44914491449144917,0.44924492449244924,0.44934493449344937,0.44944494449444944,0.44954495449544957,0.44964496449644964,0.44974497449744977,0.44984498449844984,0.44994499449944997,0.45004500450045004,0.45014501450145017,0.45024502450245024,0.45034503450345037,0.45044504450445044,0.45054505450545057,0.45064506450645064,0.45074507450745077,0.45084508450845084,0.45094509450945097,0.45104510451045104,0.45114511451145117,0.45124512451245125,0.45134513451345137,0.45144514451445145,0.45154515451545157,0.45164516451645165,0.45174517451745178,0.45184518451845185,0.45194519451945198,0.45204520452045205,0.45214521452145218,0.45224522452245225,0.45234523452345238,0.45244524452445245,0.45254525452545258,0.45264526452645265,0.45274527452745278,0.45284528452845285,0.45294529452945298,0.45304530453045305,0.45314531453145318,0.45324532453245325,0.45334533453345338,0.45344534453445345,0.45354535453545358,0.45364536453645365,0.45374537453745378,0.45384538453845386,0.45394539453945398,0.45404540454045406,0.45414541454145418,0.45424542454245426,0.45434543454345439,0.45444544454445446,0.45454545454545459,0.45464546454645466,0.45474547454745479,0.45484548454845486,0.45494549454945499,0.45504550455045506,0.45514551455145519,0.45524552455245526,0.45534553455345533,0.45544554455445546,0.45554555455545553,0.45564556455645566,0.45574557455745573,0.45584558455845586,0.45594559455945594,0.45604560456045606,0.45614561456145614,0.45624562456245626,0.45634563456345634,0.45644564456445647,0.45654565456545654,0.45664566456645667,0.45674567456745674,0.45684568456845687,0.45694569456945694,0.45704570457045707,0.45714571457145714,0.45724572457245727,0.45734573457345734,0.45744574457445747,0.45754575457545754,0.45764576457645767,0.45774577457745774,0.45784578457845787,0.45794579457945794,0.45804580458045807,0.45814581458145814,0.45824582458245827,0.45834583458345834,0.45844584458445847,0.45854585458545855,0.45864586458645867,0.45874587458745875,0.45884588458845887,0.45894589458945895,0.45904590459045908,0.45914591459145915,0.45924592459245928,0.45934593459345935,0.45944594459445948,0.45954595459545955,0.45964596459645968,0.45974597459745975,0.45984598459845988,0.45994599459945995,0.46004600460046008,0.46014601460146015,0.46024602460246028,0.46034603460346035,0.46044604460446048,0.46054605460546055,0.46064606460646068,0.46074607460746075,0.46084608460846088,0.46094609460946095,0.46104610461046108,0.46114611461146116,0.46124612461246128,0.46134613461346136,0.46144614461446148,0.46154615461546156,0.46164616461646168,0.46174617461746176,0.46184618461846189,0.46194619461946196,0.46204620462046209,0.46214621462146216,0.46224622462246229,0.46234623462346236,0.46244624462446249,0.46254625462546256,0.46264626462646269,0.46274627462746276,0.46284628462846283,0.46294629462946296,0.46304630463046303,0.46314631463146316,0.46324632463246324,0.46334633463346336,0.46344634463446344,0.46354635463546356,0.46364636463646364,0.46374637463746377,0.46384638463846384,0.46394639463946397,0.46404640464046404,0.46414641464146417,0.46424642464246424,0.46434643464346437,0.46444644464446444,0.46454645464546457,0.46464646464646464,0.46474647464746477,0.46484648464846484,0.46494649464946497,0.46504650465046504,0.46514651465146517,0.46524652465246524,0.46534653465346537,0.46544654465446544,0.46554655465546557,0.46564656465646564,0.46574657465746577,0.46584658465846585,0.46594659465946597,0.46604660466046605,0.46614661466146617,0.46624662466246625,0.46634663466346638,0.46644664466446645,0.46654665466546658,0.46664666466646665,0.46674667466746678,0.46684668466846685,0.46694669466946698,0.46704670467046705,0.46714671467146718,0.46724672467246725,0.46734673467346738,0.46744674467446745,0.46754675467546758,0.46764676467646765,0.46774677467746778,0.46784678467846785,0.46794679467946798,0.46804680468046805,0.46814681468146818,0.46824682468246825,0.46834683468346838,0.46844684468446846,0.46854685468546858,0.46864686468646866,0.46874687468746878,0.46884688468846886,0.46894689468946898,0.46904690469046906,0.46914691469146919,0.46924692469246926,0.46934693469346939,0.46944694469446946,0.46954695469546959,0.46964696469646966,0.46974697469746979,0.46984698469846986,0.46994699469946999,0.47004700470047006,0.47014701470147019,0.47024702470247026,0.47034703470347033,0.47044704470447046,0.47054705470547054,0.47064706470647066,0.47074707470747074,0.47084708470847086,0.47094709470947094,0.47104710471047107,0.47114711471147114,0.47124712471247127,0.47134713471347134,0.47144714471447147,0.47154715471547154,0.47164716471647167,0.47174717471747174,0.47184718471847187,0.47194719471947194,0.47204720472047207,0.47214721472147214,0.47224722472247227,0.47234723472347234,0.47244724472447247,0.47254725472547254,0.47264726472647267,0.47274727472747274,0.47284728472847287,0.47294729472947294,0.47304730473047307,0.47314731473147315,0.47324732473247327,0.47334733473347335,0.47344734473447347,0.47354735473547355,0.47364736473647367,0.47374737473747375,0.47384738473847388,0.47394739473947395,0.47404740474047408,0.47414741474147415,0.47424742474247428,0.47434743474347435,0.47444744474447448,0.47454745474547455,0.47464746474647468,0.47474747474747475,0.47484748474847488,0.47494749474947495,0.47504750475047508,0.47514751475147515,0.47524752475247528,0.47534753475347535,0.47544754475447548,0.47554755475547555,0.47564756475647568,0.47574757475747576,0.47584758475847588,0.47594759475947596,0.47604760476047608,0.47614761476147616,0.47624762476247628,0.47634763476347636,0.47644764476447649,0.47654765476547656,0.47664766476647669,0.47674767476747676,0.47684768476847689,0.47694769476947696,0.47704770477047709,0.47714771477147716,0.47724772477247729,0.47734773477347736,0.47744774477447749,0.47754775477547756,0.47764776477647769,0.47774777477747776,0.47784778477847789,0.47794779477947796,0.47804780478047804,0.47814781478147816,0.47824782478247824,0.47834783478347837,0.47844784478447844,0.47854785478547857,0.47864786478647864,0.47874787478747877,0.47884788478847884,0.47894789478947897,0.47904790479047904,0.47914791479147917,0.47924792479247924,0.47934793479347937,0.47944794479447944,0.47954795479547957,0.47964796479647964,0.47974797479747977,0.47984798479847984,0.47994799479947997,0.48004800480048004,0.48014801480148017,0.48024802480248024,0.48034803480348037,0.48044804480448045,